\data\
ngram 1=985
ngram 2=3234
ngram 3=9204

\1-grams:
-0.5109963	<unk>
-inf	<s>	-2.3731234
-0.6804299	</s>
-3.0311935	sıcaklığı	-0.17791751
-2.0782177	bir	-0.5532166
-2.230761	derece	-0.94049495
-3.9566336	yükselt	-0.13782679
-2.8099144	azalt	-0.51864976
-2.6061149	artır	-0.6735517
-2.9066105	düşür	-0.45170295
-2.2542295	dereceye	-0.95420593
-3.721976	yükseltir	-0.39043218
-2.6061149	misin	-0.6735517
-3.9566336	azaltır	-0.13782679
-2.4679582	mısın	-0.787495
-3.721976	artırır	-0.39043218
-3.505478	düşürür	-0.15067296
-3.721976	müsün	-0.39043218
-3.9566336	isıyı	-0.13782679
-3.9566336	çıkarır	-0.13782679
-2.1293504	getir	-1.088525
-1.876172	ayarla	-1.3267642
-3.505478	fırın	-0.21373972
-3.9566336	sıcaklığını	-0.13782679
-3.9566336	ısısını	-0.13782679
-2.230761	sabitle	-0.995771
-2.230761	yap	-0.995771
-3.721976	getirir	-0.39043218
-3.9566336	yapar	-0.13782679
-3.9566336	sıcaklığın	-0.13782679
-3.721976	ısıyı	-0.13782679
-2.2084959	sıcaklık	-0.52421963
-2.0782177	iki	-0.56573457
-2.1116288	üç	-0.5637193
-2.1116288	dört	-0.56507975
-2.1116288	beş	-0.5712007
-2.1116288	altı	-0.57479113
-2.1116288	yedi	-0.5712007
-2.1116288	sekiz	-0.57687414
-2.1116288	dokuz	-0.57479113
-2.032476	on	-0.8357245
-2.0182402	yirmi	-0.85079026
-2.032476	otuz	-0.87601227
-2.0182402	kırk	-0.8677549
-2.032476	elli	-0.87507534
-2.3053524	altmış	-0.43759087
-2.555022	yetmiş	-0.42575365
-2.8099144	seksen	-0.42176425
-2.8099144	doksan	-0.42629087
-2.363306	yüz	-0.7692131
-3.721976	saati	-0.13782679
-2.3053524	sıfır	-0.78317064
-2.147826	kur	-1.0714917
-2.1671226	al	-1.0537629
-3.9566336	zamanı	-0.13782679
-2.3053524	dakika	-0.8167061
-3.505478	ileri	-0.21436541
-3.505478	sonraya	-0.28903115
-3.721976	geriye	-0.39043218
-3.505478	geri	-0.2521495
-3.721976	önceye	-0.39043218
-3.9566336	çek	-0.13782679
-2.3333633	saat	-0.71262634
-2.1293504	alarm	-0.88778836
-3.721976	saatini	-0.15847118
-3.9566336	alarmı	-0.13782674
-3.2065737	ertele	-0.2756117
-3.9566336	öne	-0.13782679
-2.3954673	dakikalık	-0.849643
-2.3954673	dakikaya	-0.779014
-2.509312	saate	-0.7279094
-2.555022	saatlik	-0.7149444
-2.1671226	pişirme	-0.26639727
-2.3053524	bitsin	-0.9288242
-3.721976	süresini	-0.13782679
-3.505478	uzat	-0.15067296
-3.505478	kısalt	-0.15067296
-3.505478	olarak	-0.23143598
-3.9566336	vaktini	-0.13782679
-3.9566336	zamanını	-0.13782679
-3.505478	pişirmeyi	-0.15342632
-2.3053524	dakikada	-0.684374
-3.2065737	bitir	-0.2756117
-2.555022	saatte	-0.7149444
-3.9566336	sesli	-0.13782682
-3.721976	konuşma	-0.19631849
-3.721976	özelliğini	-0.13782682
-2.509312	kapat	-0.75273293
-3.721976	konuşmayı	-0.13782682
-2.147826	aç	-1.0714917
-3.9566336	özellik	-0.13782679
-3.9566336	ses	-0.13782679
-3.2065737	hızını	-0.20257029
-3.9566336	seviyesini	-0.13782679
-3.9566336	seviyesi	-0.13782679
-3.9566336	seviye	-0.13782679
-3.9566336	hız	-0.13782679
-3.9566336	hızı	-0.13782679
-3.505478	en	-0.2460168
-3.721976	fazla	-0.13782679
-3.721976	kaça	-0.28903115
-3.721976	ayarlayabilirim	-0.39043218
-3.9566336	ayarlanabilir	-0.13782679
-3.721976	çok	-0.13782679
-3.9566336	yirmiye	-0.13782679
-3.9566336	ona	-0.13782679
-3.9566336	doksana	-0.13782679
-3.721976	fırını	-0.13782674
-3.721976	fan	-0.13782679
-3.9566336	fanı	-0.13782679
-3.721976	sağa	-0.2460168
-3.721976	döndür	-0.39043218
-3.721976	sola	-0.2460168
-3.721976	çevir	-0.39043218
-3.9566336	yönünü	-0.13782679
-3.0311935	değiştir	-0.3725217
-3.9566336	yavaşlat	-0.13782679
-3.9566336	hızlandır	-0.13782679
-3.9566336	fanları	-0.13782679
-2.3954673	çalıştır	-0.849643
-3.721976	çalıştırır	-0.39043218
-3.721976	kapatır	-0.39043218
-3.2065737	söndür	-0.2756117
-3.0311935	durdur	-0.3725217
-3.721976	söndürür	-0.39043218
-3.721976	fanlı	-0.13782679
-3.721976	çalışma	-0.13782679
-3.0311935	fonksiyonunu	-0.24508204
-3.0311935	seç	-0.3725217
-3.9566336	çalışmayı	-0.13782679
-2.7308755	programını	-0.32678312
-2.7308755	programı	-0.21211156
-2.6640306	açar	-0.6277942
-2.555022	modunu	-0.26318523
-2.509312	modu	-0.5153954
-2.8099144	program	-0.26393253
-3.9566336	isıtma	-0.13782682
-3.9566336	turbo	-0.13782679
-2.8099144	moduna	-0.2579588
-2.9066105	geç	-0.45170295
-3.0311935	alt	-0.14548878
-2.9066105	ve	-0.13782679
-3.505478	üst	-0.13782682
-3.9566336	ısıtma	-0.13782679
-3.721976	ısıtmaya	-0.13782679
-3.9566336	destekli	-0.13782679
-3.9566336	seçer	-0.13782679
-3.9566336	yemeği	-0.13782679
-3.721976	ekonomik	-0.13782679
-3.9566336	modunda	-0.13782679
-3.9566336	pişirir	-0.13782679
-3.9566336	modda	-0.13782679
-3.721976	pişir	-0.39043218
-3.721976	pizza	-0.17412668
-3.721976	fonksiyonuna	-0.13782679
-3.9566336	geçer	-0.13782679
-3.505478	programına	-0.15067296
-3.2065737	fonksiyonu	-0.14548878
-3.9566336	boyut	-0.13782679
-3.721976	aktifleştir	-0.39043218
-3.9566336	tridi	-0.13782682
-3.9566336	üçde	-0.13782682
-3.721976	küçük	-0.13782679
-3.721976	ızgara	-0.21373972
-3.505478	büyük	-0.14742562
-3.721976	sıcak	-0.13782682
-3.9566336	tutma	-0.13782682
-3.9566336	başlar	-0.13782679
-2.8099144	başlat	-0.51864976
-3.9566336	buharlı	-0.13782679
-3.9566336	temizleme	-0.13782679
-3.9566336	turboya	-0.13782679
-3.9566336	pişirmek	-0.13782679
-2.2542295	istiyorum	-0.9745817
-3.9566336	ızgaraya	-0.13782679
-3.9566336	ayarlar	-0.13782679
-3.9566336	tutar	-0.13782679
-3.9566336	tut	-0.13782679
-3.9566336	sıfıra	-0.13782679
-2.4679582	kaç	-0.2530442
-3.9566336	sonra	-0.13782679
-3.721976	bitecek	-0.39043218
-2.3053524	ne	-0.2824673
-3.9566336	zaman	-0.13782679
-3.9566336	sonlanacak	-0.13782679
-2.6061149	yemek	-0.33823407
-3.721976	hazır	-0.13782679
-3.721976	olacak	-0.39043218
-3.9566336	pişecek	-0.13782679
-3.721976	otuza	-0.13782679
-3.721976	buçuğa	-0.13782679
-3.505478	ikiye	-0.13782682
-3.505478	yarım	-0.22211514
-3.9566336	yarim	-0.13782679
-2.8099144	ayarlamak	-0.435556
-3.721976	kontrol	-0.39043218
-3.9566336	etmek	-0.13782679
-3.505478	öğrenmek	-0.15067296
-3.2065737	söyler	-0.24433565
-3.721976	elliye	-0.13782679
-3.9566336	yediye	-0.13782679
-3.9566336	sekize	-0.13782679
-3.9566336	alarmın	-0.13782679
-3.721976	bitmesine	-0.39043218
-3.9566336	kadar	-0.13782682
-3.721976	kaldı	-0.39043218
-3.721976	kurmak	-0.13782679
-3.9566336	kırka	-0.13782679
-3.9566336	yarın	-0.13782679
-3.505478	kalan	-0.28903115
-3.9566336	süresi	-0.13782682
-3.9566336	ışığı	-0.13782679
-3.721976	kapa	-0.39043218
-3.9566336	kapar	-0.13782679
-3.9566336	lambaları	-0.13782682
-3.505478	yak	-0.15067296
-3.9566336	yakar	-0.13782679
-3.9566336	lambayı	-0.13782679
-3.9566336	ışığını	-0.13782679
-3.9566336	açmak	-0.13782679
-3.505478	çalıştırmak	-0.28903115
-3.9566336	kapatmak	-0.13782679
-3.721976	pişirmeye	-0.39043218
-3.721976	başla	-0.39043218
-3.9566336	açalım	-0.13782679
-3.721976	kes	-0.39043218
-3.9566336	ısıtmayı	-0.13782679
-3.9566336	ısıt	-0.13782679
-3.9566336	ısıtır	-0.13782679
-3.0311935	tarifi	-0.21373972
-3.9566336	hey	-0.13782679
-3.9566336	arçelik	-0.13782679
-3.9566336	aydınlatmayı	-0.13782679
-3.9566336	cihazı	-0.13782679
-3.9566336	kendini	-0.13782679
-3.9566336	evet	-0.13782682
-3.721976	kapatma	-0.39043218
-3.9566336	hayır	-0.13782679
-3.721976	onaylıyorum	-0.39043218
-3.721976	olur	-0.39043218
-2.9066105	var	-0.15067296
-3.9566336	sıfırla	-0.13782679
-3.721976	seçmek	-0.39043218
-3.721976	yok	-0.39043218
-3.2065737	istemiyorum	-0.2756117
-3.9566336	sıfırlama	-0.13782679
-3.721976	onaylamıyorum	-0.39043218
-3.9566336	başka	-0.13782679
-3.9566336	izgara	-0.13782682
-3.9566336	izgarayı	-0.13782679
-3.721976	sonraki	-0.26393253
-3.721976	programa	-0.39043218
-3.721976	programları	-0.39043218
-2.8099144	göster	-0.51864976
-3.9566336	diğer	-0.13782679
-3.721976	önceki	-0.26393253
-3.9566336	görmek	-0.13782679
-3.9566336	sonrakini	-0.13782679
-3.9566336	öncekini	-0.13782679
-3.9566336	günün	-0.13782679
-3.721976	güncelle	-0.39043218
-3.9566336	çıkış	-0.13782679
-3.9566336	vazgeç	-0.13782679
-2.8099144	iptal	-0.2756117
-3.9566336	ayarlardan	-0.13782679
-3.721976	çık	-0.39043218
-2.9066105	sonlandır	-0.45170295
-3.9566336	şuan	-0.13782679
-3.9566336	güncel	-0.13782679
-3.9566336	saatin	-0.13782679
-3.9566336	olduğunu	-0.13782679
-3.9566336	set	-0.13782679
-3.2065737	et	-0.14742562
-3.721976	ayarı	-0.39043218
-3.9566336	pişirmenin	-0.13782682
-3.9566336	tamamlanmasına	-0.13782679
-3.9566336	sonlanmasına	-0.13782679
-3.9566336	tamamlanacak	-0.13782679
-3.9566336	işlemini	-0.13782679
-3.9566336	alarma	-0.13782679
-3.9566336	süre	-0.13782679
-3.9566336	çalmasına	-0.13782682
-3.505478	bulunduran	-0.2460168
-3.505478	içeren	-0.15067296
-3.9566336	tariflerini	-0.13782679
-3.9566336	patlıcan	-0.13782679
-3.721976	domates	-0.16834074
-3.721976	yapmak	-0.13782679
-3.0311935	tavuk	-0.14129275
-3.721976	kabak	-0.13782682
-3.721976	kullanarak	-0.13782679
-3.9566336	pirinç	-0.13782679
-3.721976	yapabilirim	-0.39043218
-3.721976	sarımsak	-0.28903115
-2.7308755	tarifleri	-0.4007613
-3.721976	içinde	-0.13782679
-3.721976	olan	-0.13782679
-3.9566336	patatesli	-0.13782679
-3.505478	bulundurmayan	-0.28903115
-3.2065737	olmayan	-0.14742562
-3.9566336	maydonoz	-0.13782679
-3.721976	fıstık	-0.13782679
-3.9566336	fındık	-0.13782679
-3.721976	kullanmadan	-0.39043218
-3.9566336	mantar	-0.13782679
-3.2065737	hindi	-0.13782674
-3.721976	yapabileceğim	-0.28903115
-3.9566336	hazırlayabileceğim	-0.13782679
-3.2065737	tarif	-0.2813122
-3.721976	tarife	-0.28903115
-3.9566336	dön	-0.13782679
-3.9566336	tariflerden	-0.13782679
-3.9566336	adımı	-0.13782679
-3.2065737	tekrar	-0.35393724
-3.721976	söyle	-0.39043218
-3.721976	adıma	-0.39043218
-3.9566336	malzeme	-0.13782679
-3.9566336	bilgisi	-0.13782679
-3.721976	ver	-0.39043218
-3.505478	verir	-0.28903115
-3.9566336	malzemeler	-0.13782679
-3.721976	son	-0.18856151
-3.9566336	kullandığım	-0.13782682
-3.721976	gösterir	-0.39043218
-3.9566336	neydi	-0.13782679
-3.505478	hangi	-0.22211514
-3.9566336	yaptım	-0.13782679
-3.0311935	ile	-0.3725217
-3.9566336	ilgili	-0.13782679
-3.721976	daha	-0.39043218
-3.2065737	bilgi	-0.19857816
-3.9566336	almak	-0.13782679
-3.9566336	nedir	-0.13782679
-3.9566336	demektir	-0.13782679
-3.9566336	bu	-0.13782679
-3.9566336	mevcut	-0.13782679
-3.0311935	hakkında	-0.20680629
-3.9566336	seçili	-0.13782682
-3.9566336	simdiki	-0.13782679
-3.9566336	şuanki	-0.13782679
-3.9566336	şimdiki	-0.13782679
-3.9566336	aktif	-0.13782679
-3.9566336	sen	-0.13782679
-3.721976	kimsin	-0.39043218
-3.9566336	seninle	-0.13782679
-3.0311935	nasıl	-0.31224915
-3.9566336	iletişim	-0.13782679
-3.9566336	kurabilirim	-0.13782679
-3.505478	neler	-0.28903115
-3.721976	yapabiliyorsun	-0.39043218
-3.9566336	yeteneklerin	-0.13782679
-3.9566336	fonksiyonların	-0.13782679
-3.9566336	temel	-0.13782679
-3.721976	fonksiyonlara	-0.39043218
-3.9566336	sahipsin	-0.13782679
-3.9566336	sana	-0.13782679
-3.9566336	komutları	-0.13782679
-3.9566336	söyleyebilirim	-0.13782679
-3.9566336	komut	-0.13782679
-3.721976	vermek	-0.39043218
-3.9566336	ayarını	-0.13782679
-3.9566336	bana	-0.13782682
-3.721976	yardım	-0.39043218
-3.721976	eder	-0.39043218
-3.9566336	yardıma	-0.13782679
-3.9566336	ihtiyacım	-0.13782679
-3.9566336	ızgarayı	-0.13782679
-3.9566336	eko	-0.13782679
-3.9566336	mod	-0.13782679
-3.721976	temizlik	-0.3440496
-3.9566336	temizle	-0.13782679
-3.9566336	favorilerden	-0.13782679
-3.505478	çıkart	-0.15067296
-3.505478	kaldır	-0.15067296
-3.9566336	favoriler	-0.13782679
-3.9566336	listesinden	-0.13782679
-3.9566336	listeden	-0.13782679
-3.9566336	favori	-0.13782679
-3.9566336	liste	-0.13782679
-3.9566336	ışık	-0.13782679
-3.9566336	alabilir	-0.13782679
-3.9566336	adım	-0.13782679
-3.9566336	lamba	-0.13782679
-3.9566336	vakti	-0.13782679
-3.9566336	buçuk	-0.13782679
-3.9566336	çeyrek	-0.13782679
-3.9566336	çeyreğe	-0.13782679
-3.9566336	pervane	-0.13782679
-3.9566336	kısa	-0.13782679
-3.721976	tarifler	-0.39043218
-3.9566336	tariflere	-0.13782679
-3.9566336	git	-0.13782679
-3.721976	beni	-0.13782679
-3.721976	sesimden	-0.39043218
-3.505478	tanı	-0.28903115
-3.9566336	kişisel	-0.13782679
-3.721976	sağlık	-0.28903115
-3.721976	bilgilerime	-0.28903115
-3.9566336	ulaşmak	-0.13782679
-3.9566336	erişmek	-0.13782679
-3.9566336	bilgilerimi	-0.13782682
-3.9566336	arçi	-0.13782679
-3.9566336	unut	-0.13782679
-3.9566336	kuzu	-0.13782679
-3.505478	dolması	-0.15067296
-3.9566336	domuz	-0.13782679
-3.2065737	köfte	-0.2756117
-3.9566336	rostosu	-0.13782679
-3.721976	pirzolası	-0.39043218
-3.9566336	fırında	-0.13782679
-3.721976	badem	-0.13782682
-3.0311935	soslu	-0.14548878
-3.721976	piliç	-0.13782679
-3.9566336	nugget	-0.13782679
-3.9566336	göğsü	-0.13782679
-3.9566336	kişnişli	-0.13782679
-3.9566336	şiş	-0.13782679
-3.721976	baget	-0.28903115
-3.505478	rosto	-0.15067296
-3.9566336	butu	-0.13782679
-3.9566336	kebap	-0.13782679
-3.9566336	somon	-0.13782679
-3.721976	balığı	-0.13782679
-3.721976	keki	-0.39043218
-3.721976	kızarmış	-0.13782679
-3.721976	bütün	-0.13782679
-3.721976	ördek	-0.39043218
-3.9566336	kinoa	-0.13782679
-3.9566336	falafel	-0.13782679
-3.9566336	portakallı	-0.13782679
-3.9566336	bıldırcın	-0.13782679
-3.9566336	biscotti	-0.13782679
-3.9566336	çilek	-0.13782679
-3.9566336	pestili	-0.13782679
-3.9566336	çipura	-0.13782679
-3.9566336	kağıdında	-0.13782679
-3.9566336	dil	-0.13782679
-3.9566336	hamsi	-0.13782679
-3.721976	buğulama	-0.39043218
-3.9566336	kaburga	-0.13782679
-3.721976	baharatlı	-0.13782682
-3.721976	sarımsaklı	-0.13782679
-3.9566336	karides	-0.13782679
-3.0311935	fileto	-0.32351688
-3.721976	balık	-0.17412668
-3.505478	kebabı	-0.15067296
-3.9566336	yahni	-0.13782679
-3.721976	şarap	-0.13782679
-3.9566336	i̇stiridye	-0.13782679
-2.9066105	biber	-0.29818782
-3.9566336	yeşil	-0.13782679
-3.9566336	i̇talyan	-0.13782679
-3.9566336	loru	-0.13782679
-3.9566336	dolgulu	-0.13782679
-3.721976	makarna	-0.39043218
-3.721976	kumpir	-0.39043218
-3.9566336	kuşkonmaz	-0.13782679
-3.505478	enginar	-0.2460168
-3.505478	kiş	-0.15067296
-3.9566336	musakka	-0.13782679
-3.9566336	çıtır	-0.13782679
-3.505478	patates	-0.2460168
-3.9566336	cipsi	-0.13782679
-3.505478	elma	-0.2460168
-3.9566336	dilim	-0.13782679
-3.721976	pişmiş	-0.13782679
-3.0311935	but	-0.20127779
-3.9566336	lazanya	-0.13782679
-3.721976	sebzeli	-0.28903115
-3.9566336	türlü	-0.13782679
-3.721976	cevizli	-0.28903115
-3.721976	kurabiye	-0.39043218
-3.9566336	kuşkonmazlı	-0.13782679
-3.721976	yufka	-0.39043218
-3.9566336	limonlu	-0.13782679
-3.721976	bisküvi	-0.39043218
-3.505478	biftek	-0.1442024
-3.9566336	meyveli	-0.13782679
-3.9566336	somun	-0.13782679
-3.721976	kek	-0.39043218
-3.9566336	calzone	-0.13782679
-3.9566336	haşhaşlı	-0.13782679
-3.721976	çörekler	-0.39043218
-3.505478	ekmek	-0.18856151
-3.9566336	sandviç	-0.13782679
-3.505478	ekmeği	-0.15067296
-3.9566336	kahvaltılık	-0.13782679
-3.721976	muffin	-0.13782679
-3.9566336	kalıbında	-0.13782679
-3.9566336	omlet	-0.13782679
-3.9566336	tatlı	-0.13782679
-3.9566336	çörek	-0.13782679
-3.9566336	muzlu	-0.13782679
-3.9566336	yulaf	-0.13782679
-3.2065737	unlu	-0.14742562
-3.9566336	ispanak	-0.13782679
-3.9566336	muffinleri	-0.13782679
-3.9566336	rulo	-0.13782679
-3.9566336	simit	-0.13782679
-3.9566336	burrata	-0.13782679
-3.9566336	taze	-0.13782679
-3.721976	meyve	-0.13782679
-3.505478	turtası	-0.15067296
-3.9566336	elmalı	-0.13782682
-3.9566336	tart	-0.13782679
-3.9566336	puf	-0.13782679
-3.9566336	pavlova	-0.13782679
-3.9566336	granola	-0.13782679
-3.9566336	çubukları	-0.13782679
-3.721976	sütlaç	-0.39043218
-3.9566336	cheesecake	-0.13782679
-3.9566336	çikolatalı	-0.13782682
-3.9566336	sufle	-0.13782679
-3.9566336	krem	-0.13782679
-3.721976	brule	-0.39043218
-3.721976	ballı	-0.13782679
-3.9566336	muz	-0.13782679
-3.9566336	galete	-0.13782679
-3.9566336	armut	-0.13782679
-3.721976	kurusu	-0.39043218
-3.9566336	çilekli	-0.13782679
-3.9566336	kırıntı	-0.13782679
-3.721976	turta	-0.39043218
-3.721976	yoğurt	-0.39043218
-3.9566336	hamur	-0.13782679
-3.721976	kabartma	-0.13782679
-3.721976	bonfile	-0.13782682
-3.9566336	ısı	-0.13782679
-3.9566336	açsın	-0.13782679
-3.9566336	önerir	-0.13782679
-3.9566336	fasülye	-0.13782679
-3.9566336	semizot	-0.13782679
-3.9566336	ıspanak	-0.13782679
-3.9566336	tarçınlı	-0.13782679
-3.9566336	pasta	-0.13782679
-3.9566336	karamel	-0.13782679
-3.9566336	tuzda	-0.13782679
-3.9566336	güveçte	-0.13782679
-3.9566336	sarma	-0.13782679
-3.9566336	baton	-0.13782679
-3.9566336	közlenmiş	-0.13782679
-3.9566336	bagetleri	-0.13782679
-3.9566336	şerbetli	-0.13782679
-3.9566336	puflar	-0.13782679
-3.721976	tavşan	-0.39043218
-3.9566336	parçaları	-0.13782679
-3.9566336	iri	-0.13782679
-3.9566336	çikolata	-0.13782679
-3.721976	tuzlu	-0.39043218
-3.9566336	taneli	-0.13782679
-3.9566336	ekler	-0.13782679
-3.721976	dana	-0.13782679
-3.2065737	eti	-0.2756117
-3.9566336	köftesi	-0.13782679
-3.9566336	sülün	-0.13782679
-3.9566336	börek	-0.13782679
-3.9566336	beze	-0.13782679
-3.9566336	paketleri	-0.13782679
-3.721976	maydanoz	-0.22211514
-3.9566336	kruvasan	-0.13782679
-3.9566336	örgü	-0.13782679
-3.9566336	puding	-0.13782679
-3.9566336	dondurulmuş	-0.13782679
-3.9566336	tandır	-0.13782679
-3.9566336	poğaçalar	-0.13782679
-3.9566336	topları	-0.13782679
-3.9566336	yahnisi	-0.13782679
-3.9566336	sığır	-0.13782679
-3.9566336	böreği	-0.13782679
-3.9566336	yumuşak	-0.13782679
-3.9566336	avcı	-0.13782679
-3.9566336	graten	-0.13782679
-3.9566336	sosisli	-0.13782679
-3.9566336	kaz	-0.13782679
-3.9566336	i̇rmik	-0.13782679
-3.9566336	bonfilesi	-0.13782679
-3.9566336	usulü	-0.13782679
-3.9566336	alabalık	-0.13782679
-3.9566336	acılı	-0.13782679
-3.9566336	levrek	-0.13782679
-3.9566336	sebzeler	-0.13782679
-3.721976	bifteği	-0.39043218
-3.721976	sebze	-0.22211514
-3.2065737	etli	-0.2756117
-3.9566336	rulolar	-0.13782679
-3.9566336	rozbif	-0.13782679
-3.9566336	mereng	-0.13782679
-3.9566336	kreme	-0.13782679
-3.0311935	peynirli	-0.3725217
-3.9566336	güveç	-0.13782679
-3.9566336	ayva	-0.13782679
-3.9566336	ekle	-0.13782679
-3.9566336	cümleyi	-0.13782679
-3.9566336	söyleyebilir	-0.13782679
-3.2065737	anlamadım	-0.24433565
-3.505478	dediğini	-0.15067296
-3.721976	söylediğini	-0.39043218
-3.9566336	seni	-0.13782679
-3.721976	iç	-0.13782679
-3.9566336	bugün	-0.13782679
-3.505478	hava	-0.20688152
-3.721976	durumu	-0.39043218
-3.9566336	yağmur	-0.13782679
-3.721976	mı	-0.39043218
-3.9566336	kar	-0.13782679
-3.9566336	rüzgarlı	-0.13782679
-3.9566336	sağanak	-0.13782679
-3.9566336	yağış	-0.13782679
-3.9566336	trafik	-0.13782679
-3.9566336	işe	-0.13782682
-3.721976	gidebilirim	-0.39043218
-3.9566336	zamanda	-0.13782679
-3.9566336	gitmem	-0.13782679
-3.9566336	sürer	-0.13782679
-3.9566336	yoğun	-0.13782679
-3.9566336	mu	-0.13782679
-3.721976	haberleri	-0.13782679
-3.9566336	okur	-0.13782679
-3.9566336	musun	-0.13782679
-3.721976	siparişi	-0.39043218
-3.9566336	ayakkabı	-0.13782679
-3.9566336	sipariş	-0.13782679
-3.9566336	verebilir	-0.13782679
-3.9566336	miyim	-0.13782679
-3.9566336	buzdolabı	-0.13782679
-3.9566336	derin	-0.13782679
-3.9566336	dondurucu	-0.13782679
-3.9566336	davlumbazı	-0.13782679
-3.9566336	mikrodalga	-0.13782679
-3.9566336	kahve	-0.13782679
-3.0311935	makinesini	-0.3725217
-3.9566336	çay	-0.13782679
-3.9566336	çamaşır	-0.13782679
-3.9566336	kurutma	-0.13782679
-3.9566336	kurutucuyu	-0.13782679
-3.9566336	bulaşık	-0.13782679
-3.9566336	klimayı	-0.13782679
-3.9566336	televizyonu	-0.13782679
-3.9566336	robot	-0.13782679
-3.9566336	süpürgeyi	-0.13782679
-3.9566336	çağır	-0.13782679
-3.9566336	karnabahar	-0.13782679
-3.721976	yumurta	-0.13782679
-3.9566336	sarısı	-0.13782679
-3.9566336	stok	-0.13782679
-3.9566336	orta	-0.13782679
-3.9566336	boy	-0.13782679
-3.0311935	soğan	-0.3725217
-3.9566336	tereyağı	-0.13782679
-3.9566336	kimyon	-0.13782679
-3.9566336	pudra	-0.13782682
-3.9566336	şekeri	-0.13782679
-3.9566336	acı	-0.13782679
-3.9566336	pekmez	-0.13782679
-3.9566336	karışık	-0.13782679
-3.9566336	haşhaş	-0.13782679
-3.721976	tohumu	-0.39043218
-3.9566336	yaprakları	-0.13782679
-3.9566336	fesleğen	-0.13782679
-3.9566336	hindistan	-0.13782682
-3.9566336	cevizi	-0.13782679
-3.9566336	salam	-0.13782679
-3.9566336	sucuk	-0.13782679
-3.9566336	karabiber	-0.13782679
-3.9566336	dereotu	-0.13782679
-3.721976	un	-0.39043218
-3.9566336	yağı	-0.13782679
-3.9566336	adaçayı	-0.13782679
-3.9566336	biberiye	-0.13782682
-3.9566336	dalları	-0.13782679
-3.9566336	milföy	-0.13782682
-3.9566336	hamuru	-0.13782679
-3.721976	kıyma	-0.39043218
-3.9566336	bezelye	-0.13782679
-3.9566336	defne	-0.13782679
-3.9566336	beyaz	-0.13782679
-3.505478	peynir	-0.15067296
-3.9566336	kırmızı	-0.13782679
-3.9566336	bacon	-0.13782679
-3.9566336	pancetta	-0.13782679
-3.9566336	kişniş	-0.13782679
-3.721976	limon	-0.30579293
-3.9566336	kabuğu	-0.13782679
-3.721976	salçası	-0.39043218
-3.721976	tozu	-0.39043218
-3.9566336	filetosu	-0.13782679
-3.9566336	irmik	-0.13782679
-3.9566336	çırpılmış	-0.13782679
-3.9566336	dışı	-0.13782679
-3.9566336	nişasta	-0.13782679
-3.9566336	doğal	-0.13782682
-3.9566336	hardal	-0.13782682
-3.9566336	mayonez	-0.13782679
-3.505478	yaprağı	-0.15067296
-3.9566336	margarin	-0.13782679
-3.721976	oda	-0.39043218
-3.9566336	sıcaklığında	-0.13782679
-3.9566336	ceviz	-0.13782679
-3.9566336	ricotta	-0.13782682
-3.721976	peyniri	-0.39043218
-3.9566336	demet	-0.13782679
-3.9566336	kuru	-0.13782682
-3.721976	maya	-0.39043218
-3.9566336	yaş	-0.13782682
-3.9566336	unu	-0.13782679
-3.9566336	akı	-0.13782679
-3.9566336	pul	-0.13782682
-3.9566336	kivi	-0.13782679
-3.721976	toz	-0.13782682
-3.9566336	tüm	-0.13782682
-3.9566336	kakao	-0.13782679
-3.9566336	havuç	-0.13782679
-3.9566336	yenibahar	-0.13782679
-3.9566336	nane	-0.13782679
-3.9566336	zeytinyağı	-0.13782679
-3.9566336	vanilya	-0.13782682
-3.9566336	özütü	-0.13782679
-3.9566336	esmer	-0.13782682
-3.505478	şeker	-0.15067296
-3.721976	göğüs	-0.13782679
-3.9566336	çedar	-0.13782682
-3.9566336	süt	-0.13782679
-3.9566336	beyazı	-0.13782679
-3.9566336	deniz	-0.13782682
-3.9566336	tuzu	-0.13782679
-3.9566336	kekik	-0.13782679
-3.9566336	tarhun	-0.13782682
-3.9566336	otu	-0.13782679
-3.9566336	muskat	-0.13782679
-3.9566336	kıyması	-0.13782679
-3.9566336	tuz	-0.13782679
-3.2065737	suyu	-0.2756117
-3.9566336	ot	-0.13782679
-3.9566336	ezilmiş	-0.13782679
-3.721976	soyulmuş	-0.13782682
-3.9566336	doğranmış	-0.13782679
-3.9566336	salamura	-0.13782682
-3.9566336	zeytin	-0.13782679
-3.9566336	bal	-0.13782679
-3.9566336	üzüm	-0.13782679
-3.721976	krema	-0.39043218
-3.9566336	brokoli	-0.13782679
-3.9566336	baharat	-0.13782679
-3.721976	yağsız	-0.28903115
-3.9566336	su	-0.13782679
-3.9566336	kırıntıları	-0.13782679
-3.9566336	parmesan	-0.13782679
-3.9566336	yağ	-0.13782679
-3.721976	sos	-0.39043218
-3.9566336	sosis	-0.13782679
-3.9566336	sosu	-0.13782679
-3.9566336	frenk	-0.13782682
-3.9566336	soğanı	-0.13782679
-3.9566336	konservesi	-0.13782679
-3.9566336	konyak	-0.13782679
-3.9566336	rezene	-0.13782682
-3.9566336	beşamel	-0.13782682
-3.9566336	mozerella	-0.13782682
-3.9566336	filetoları	-0.13782679
-3.9566336	bonfileleri	-0.13782679
-3.9566336	mısır	-0.13782679
-3.9566336	kornişon	-0.13782682
-3.9566336	turşusu	-0.13782679
-3.9566336	pastırması	-0.13782679
-3.9566336	kabaran	-0.13782682
-3.9566336	yaban	-0.13782682
-3.9566336	mersini	-0.13782679
-3.721976	yağlı	-0.22211514
-3.9566336	karnabaharsız	-0.13782679
-3.9566336	sarısız	-0.13782679
-3.9566336	stoksuz	-0.13782679
-2.9066105	soğansız	-0.45170295
-3.9566336	çikolatasız	-0.13782679
-3.9566336	tereyağısız	-0.13782679
-3.9566336	kimyonsuz	-0.13782679
-3.2065737	şekersiz	-0.2756117
-3.9566336	hindisiz	-0.13782679
-2.9066105	bibersiz	-0.45170295
-3.9566336	pekmezsiz	-0.13782679
-3.721976	sebzesiz	-0.39043218
-3.721976	tohumsuz	-0.39043218
-3.505478	etsiz	-0.15067296
-3.2065737	yapraksız	-0.2756117
-3.9566336	tereyağsız	-0.13782679
-3.505478	butsuz	-0.15067296
-3.9566336	yufkasız	-0.13782679
-3.9566336	fesleğensiz	-0.13782679
-3.721976	cevizsiz	-0.39043218
-3.721976	maydanozsuz	-0.39043218
-3.9566336	salamsız	-0.13782679
-3.9566336	sucuksuz	-0.13782679
-3.9566336	yumurtasız	-0.13782679
-3.9566336	kabaksız	-0.13782679
-3.9566336	karabibersiz	-0.13782679
-3.9566336	dereotsuz	-0.13782679
-3.505478	unsuz	-0.15067296
-3.9566336	adaçaysız	-0.13782679
-3.9566336	dalsız	-0.13782679
-3.9566336	patatessiz	-0.13782679
-3.9566336	hamursuz	-0.13782679
-3.9566336	pirinçsiz	-0.13782679
-3.505478	kıymasız	-0.15067296
-3.9566336	bezelyesiz	-0.13782679
-3.9566336	defnesiz	-0.13782679
-3.0311935	peynirsiz	-0.3725217
-3.9566336	ayvasız	-0.13782679
-3.9566336	baconsız	-0.13782679
-3.9566336	pancettasız	-0.13782679
-3.9566336	kişnişsiz	-0.13782679
-3.9566336	kabuksuz	-0.13782679
-3.9566336	mantarsız	-0.13782679
-3.721976	salçasız	-0.39043218
-3.721976	tozsuz	-0.39043218
-3.0311935	filetosuz	-0.3725217
-3.505478	bifteksiz	-0.15067296
-3.9566336	irmiksiz	-0.13782679
-3.9566336	dışsız	-0.13782679
-3.9566336	nişastasız	-0.13782679
-3.9566336	yoğurtsuz	-0.13782679
-3.9566336	mayonezsiz	-0.13782679
-3.721976	tavuksuz	-0.39043218
-3.9566336	margarinsiz	-0.13782679
-3.9566336	kuzusuz	-0.13782679
-3.9566336	muzsuz	-0.13782679
-3.9566336	danasız	-0.13782679
-3.505478	bonfilesiz	-0.28903115
-3.721976	mayasız	-0.39043218
-3.9566336	limonsuz	-0.13782679
-3.9566336	aksız	-0.13782679
-3.9566336	kivisiz	-0.13782679
-3.9566336	şarapsız	-0.13782679
-3.9566336	fıstıksız	-0.13782679
-3.9566336	patlıcansız	-0.13782679
-3.9566336	haşhaşsız	-0.13782679
-3.9566336	tavşansız	-0.13782679
-3.721976	domatessiz	-0.39043218
-3.9566336	kakaosuz	-0.13782679
-3.9566336	havuçsuz	-0.13782679
-3.9566336	yenibaharsız	-0.13782679
-3.9566336	sarımsaksız	-0.13782679
-3.9566336	nanesiz	-0.13782679
-3.9566336	zeytinyağsız	-0.13782679
-3.9566336	pirzolasız	-0.13782679
-3.9566336	özütsüz	-0.13782679
-3.9566336	sütsüz	-0.13782679
-3.9566336	beyazsız	-0.13782679
-3.721976	tuzsuz	-0.39043218
-3.9566336	kekiksiz	-0.13782679
-3.9566336	ördeksiz	-0.13782679
-3.505478	otsuz	-0.15067296
-3.9566336	muskatsız	-0.13782679
-3.9566336	sülünsüz	-0.13782679
-3.0311935	susuz	-0.3725217
-3.9566336	zeytinsiz	-0.13782679
-3.9566336	balsız	-0.13782679
-3.9566336	üzümsüz	-0.13782679
-3.721976	kremasız	-0.39043218
-3.9566336	hamsisiz	-0.13782679
-3.9566336	brokolisiz	-0.13782679
-3.9566336	baharatsız	-0.13782679
-3.9566336	elmasız	-0.13782679
-3.9566336	kırıntısız	-0.13782679
-3.9566336	armutsuz	-0.13782679
-3.9566336	parmesansız	-0.13782679
-3.505478	sossuz	-0.15067296
-3.9566336	çileksiz	-0.13782679
-3.9566336	levreksiz	-0.13782679
-3.9566336	sosissiz	-0.13782679
-3.9566336	kazsız	-0.13782679
-3.9566336	konservesiz	-0.13782679
-3.9566336	konyaksız	-0.13782679
-3.9566336	fındıksız	-0.13782679
-3.9566336	somonsuz	-0.13782679
-3.9566336	alabalıksız	-0.13782679
-3.9566336	mısırsız	-0.13782679
-3.9566336	turşusuz	-0.13782679
-3.9566336	pastırmasız	-0.13782679
-3.9566336	mersinsiz	-0.13782679
-3.9566336	domuzsuz	-0.13782679
-3.9566336	balıksız	-0.13782679
-3.9566336	karnabaharlı	-0.13782679
-3.9566336	sarılı	-0.13782679
-3.9566336	stoklu	-0.13782679
-3.9566336	kimyonlu	-0.13782679
-3.0311935	şekerli	-0.3725217
-3.9566336	hindili	-0.13782679
-2.9066105	biberli	-0.45170295
-3.9566336	pekmezli	-0.13782679
-3.721976	tohumlu	-0.39043218
-3.2065737	yapraklı	-0.2756117
-3.9566336	tereyağlı	-0.13782679
-3.505478	butlu	-0.15067296
-3.9566336	yufkalı	-0.13782679
-3.9566336	fesleğenli	-0.13782679
-3.9566336	maydanozlu	-0.13782679
-3.9566336	salamlı	-0.13782679
-3.9566336	sucuklu	-0.13782679
-3.9566336	yumurtalı	-0.13782679
-3.9566336	kabaklı	-0.13782679
-3.9566336	karabiberli	-0.13782679
-3.9566336	dereotulu	-0.13782679
-3.9566336	adaçayılı	-0.13782679
-3.9566336	dallı	-0.13782679
-3.9566336	hamurlu	-0.13782679
-3.9566336	pirinçli	-0.13782679
-3.505478	kıymalı	-0.15067296
-3.9566336	bezelyeli	-0.13782679
-3.9566336	defneli	-0.13782679
-3.9566336	ayvalı	-0.13782679
-3.9566336	baconlu	-0.13782679
-3.9566336	pancettalı	-0.13782679
-3.9566336	kabuklu	-0.13782679
-3.9566336	mantarlı	-0.13782679
-3.721976	salçalı	-0.39043218
-3.721976	tozlu	-0.39043218
-3.0311935	filetolu	-0.3725217
-3.505478	biftekli	-0.15067296
-3.9566336	irmikli	-0.13782679
-3.9566336	dışlı	-0.13782679
-3.9566336	nişastalı	-0.13782679
-3.9566336	yoğurtlu	-0.13782679
-3.9566336	mayonezli	-0.13782679
-3.721976	tavuklu	-0.39043218
-3.9566336	margarinli	-0.13782679
-3.721976	soğanlı	-0.39043218
-3.721976	mayalı	-0.39043218
-3.9566336	aklı	-0.13782679
-3.9566336	kivili	-0.13782679
-3.9566336	şaraplı	-0.13782679
-3.9566336	fıstıklı	-0.13782679
-3.9566336	patlıcanlı	-0.13782679
-3.9566336	tavşanlı	-0.13782679
-3.9566336	domatesli	-0.13782679
-3.9566336	kakaolu	-0.13782679
-3.9566336	havuçlu	-0.13782679
-3.9566336	yenibaharlı	-0.13782679
-3.9566336	naneli	-0.13782679
-3.9566336	zeytinyağlı	-0.13782679
-3.9566336	pirzolalı	-0.13782679
-3.9566336	özütlü	-0.13782679
-3.9566336	sütlü	-0.13782679
-3.9566336	beyazlı	-0.13782679
-3.9566336	kekikli	-0.13782679
-3.9566336	ördekli	-0.13782679
-3.505478	otlu	-0.15067296
-3.9566336	muskatlı	-0.13782679
-3.9566336	sülünlü	-0.13782679
-3.0311935	sulu	-0.3725217
-3.9566336	zeytinli	-0.13782679
-3.9566336	bonfileli	-0.13782679
-3.9566336	üzümlü	-0.13782679
-3.721976	kremalı	-0.39043218
-3.9566336	hamsili	-0.13782679
-3.9566336	brokolili	-0.13782679
-3.9566336	kırıntılı	-0.13782679
-3.9566336	armutlu	-0.13782679
-3.9566336	parmesanlı	-0.13782679
-3.9566336	levrekli	-0.13782679
-3.9566336	kazlı	-0.13782679
-3.9566336	konserveli	-0.13782679
-3.9566336	konyaklı	-0.13782679
-3.9566336	fındıklı	-0.13782679
-3.9566336	somonlu	-0.13782679
-3.9566336	alabalıklı	-0.13782679
-3.9566336	mısırlı	-0.13782679
-3.9566336	turşulu	-0.13782679
-3.9566336	pastırmalı	-0.13782679
-3.9566336	mersinli	-0.13782679
-3.9566336	domuzlu	-0.13782679
-3.9566336	danalı	-0.13782679
-3.9566336	kuzulu	-0.13782679
-3.9566336	balıklı	-0.13782679
-3.9566336	bademsiz	-0.13782679
-3.9566336	enginarsız	-0.13782679
-3.9566336	semizotsuz	-0.13782679
-3.9566336	mercimeksiz	-0.13782679
-3.9566336	fasülyesiz	-0.13782679
-3.9566336	ıspanaksız	-0.13782679
-3.9566336	diş	-0.13782679
-3.9566336	bademli	-0.13782679
-3.9566336	enginarlı	-0.13782679
-3.9566336	semizotlu	-0.13782679
-3.9566336	mercimekli	-0.13782679
-3.9566336	fasülyeli	-0.13782679
-3.9566336	ıspanaklı	-0.13782679

\2-grams:
-0.77745503	sıcaklığı </s>
-1.2242535	bir </s>
-1.5212222	derece </s>
-0.37274194	yükselt </s>
-0.11901846	azalt </s>
-0.07976925	artır </s>
-0.14246066	düşür </s>
-0.07976925	misin </s>
-0.060017988	mısın </s>
-0.16878957	müsün </s>
-0.02897302	getir </s>
-0.01650343	ayarla </s>
-0.8172575	fırın </s>
-0.036165882	sabitle </s>
-0.036165882	yap </s>
-1.1438712	sıcaklık </s>
-1.2366326	iki </s>
-1.2346172	üç </s>
-1.2358594	dört </s>
-1.2416598	beş </s>
-1.2451206	altı </s>
-1.2416598	yedi </s>
-1.2472036	sekiz </s>
-1.2451206	dokuz </s>
-1.5083467	on </s>
-1.5230072	yirmi </s>
-1.5473719	otuz </s>
-1.5393213	kırk </s>
-1.5464349	elli </s>
-1.1042788	altmış </s>
-1.090263	yetmiş </s>
-1.0859004	seksen </s>
-1.090078	doksan </s>
-1.439769	yüz </s>
-1.4463364	sıfır </s>
-0.030173115	kur </s>
-0.031476997	al </s>
-1.4814981	dakika </s>
-0.7626272	ileri </s>
-0.8164266	sonraya </s>
-0.82164115	geri </s>
-0.37274194	çek </s>
-0.23618689	ertele </s>
-0.04249758	bitsin </s>
-0.79038745	süresini </s>
-0.3558707	uzat </s>
-0.3558707	kısalt </s>
-0.8027732	pişirmeyi </s>
-0.23618689	bitir </s>
-0.61509454	sesli </s>
-0.765322	konuşma </s>
-0.61509454	özelliğini </s>
-0.06541495	kapat </s>
-0.61509454	konuşmayı </s>
-0.030173115	aç </s>
-0.37274194	özellik </s>
-0.5407133	ses </s>
-0.7701512	hızını </s>
-0.37274194	seviyesi </s>
-0.37274194	seviye </s>
-0.37274194	hız </s>
-0.37274194	hızı </s>
-0.16878957	ayarlayabilirim </s>
-0.37274194	ayarlanabilir </s>
-0.73058945	fan </s>
-0.16878957	döndür </s>
-0.16878957	çevir </s>
-0.17756279	değiştir </s>
-0.37274194	yavaşlat </s>
-0.37274194	hızlandır </s>
-0.05151993	çalıştır </s>
-0.23618689	söndür </s>
-0.17756279	durdur </s>
-0.6576812	çalışma </s>
-0.17756279	seç </s>
-0.56535786	programı </s>
-0.19586556	modu </s>
-0.5480547	program </s>
-0.61509454	isıtma </s>
-0.7395009	turbo </s>
-0.14246066	geç </s>
-0.68539363	yemeği </s>
-0.16878957	pişir </s>
-0.6062455	pizza </s>
-0.48785266	fonksiyonu </s>
-0.16878957	aktifleştir </s>
-0.11901846	başlat </s>
-0.6576812	temizleme </s>
-0.03805572	istiyorum </s>
-0.37274194	tut </s>
-0.6006722	kaç </s>
-0.16878957	bitecek </s>
-0.8271233	ne </s>
-0.37274194	sonlanacak </s>
-0.5407133	hazır </s>
-0.16878957	olacak </s>
-0.37274194	pişecek </s>
-0.5407133	buçuğa </s>
-0.74583167	yarım </s>
-0.61509454	kadar </s>
-0.16878957	kaldı </s>
-0.7049025	süresi </s>
-0.16878957	kapa </s>
-0.3558707	yak </s>
-0.70349216	çalıştırmak </s>
-0.16878957	başla </s>
-0.16878957	kes </s>
-0.37274194	ısıt </s>
-0.8172575	tarifi </s>
-0.37274194	arçelik </s>
-0.7049025	evet </s>
-0.16878957	kapatma </s>
-0.68539363	hayır </s>
-0.16878957	onaylıyorum </s>
-0.16878957	olur </s>
-0.5314889	var </s>
-0.37274194	sıfırla </s>
-0.16878957	yok </s>
-0.23618689	istemiyorum </s>
-0.37274194	sıfırlama </s>
-0.16878957	onaylamıyorum </s>
-0.61509454	izgara </s>
-0.5480547	sonraki </s>
-0.11901846	göster </s>
-0.5480547	önceki </s>
-0.16878957	güncelle </s>
-0.37274194	çıkış </s>
-0.37274194	vazgeç </s>
-0.6564276	iptal </s>
-0.16878957	çık </s>
-0.14246066	sonlandır </s>
-0.4335557	et </s>
-0.16878957	ayarı </s>
-0.37274194	tamamlanacak </s>
-0.37274194	süre </s>
-0.72946686	bulunduran </s>
-0.5407133	patlıcan </s>
-0.6328515	domates </s>
-0.5407133	yapmak </s>
-0.6369391	tavuk </s>
-0.61509454	kabak </s>
-0.5407133	pirinç </s>
-0.16878957	yapabilirim </s>
-0.29874733	sarımsak </s>
-0.5407133	patatesli </s>
-0.5407133	fıstık </s>
-0.5407133	fındık </s>
-0.5407133	mantar </s>
-0.7527983	hindi </s>
-0.42285085	tarif </s>
-0.37274194	dön </s>
-0.9114879	tekrar </s>
-0.16878957	söyle </s>
-0.6576812	bilgisi </s>
-0.16878957	ver </s>
-0.70349216	verir </s>
-0.37274194	malzemeler </s>
-0.37274194	neydi </s>
-0.37274194	yaptım </s>
-0.78957033	bilgi </s>
-0.37274194	nedir </s>
-0.37274194	demektir </s>
-0.5407133	mevcut </s>
-0.78611416	hakkında </s>
-0.61509454	seçili </s>
-0.5407133	şuanki </s>
-0.37274194	şimdiki </s>
-0.16878957	kimsin </s>
-0.6021361	nasıl </s>
-0.37274194	kurabilirim </s>
-0.29874733	neler </s>
-0.16878957	yapabiliyorsun </s>
-0.37274194	sahipsin </s>
-0.37274194	söyleyebilirim </s>
-0.61509454	bana </s>
-0.5407133	eko </s>
-0.5407133	mod </s>
-0.8749535	temizlik </s>
-0.37274194	temizle </s>
-0.3558707	çıkart </s>
-0.3558707	kaldır </s>
-0.5407133	favoriler </s>
-0.37274194	liste </s>
-0.37274194	ışık </s>
-0.37274194	alabilir </s>
-0.37274194	adım </s>
-0.37274194	lamba </s>
-0.37274194	vakti </s>
-0.37274194	buçuk </s>
-0.37274194	çeyrek </s>
-0.37274194	çeyreğe </s>
-0.37274194	pervane </s>
-0.37274194	kısa </s>
-0.16878957	tarifler </s>
-0.37274194	git </s>
-0.6576812	beni </s>
-0.29874733	tanı </s>
-0.37274194	arçi </s>
-0.37274194	unut </s>
-0.7747921	kuzu </s>
-0.3558707	dolması </s>
-0.7693121	domuz </s>
-0.23618689	köfte </s>
-0.37274194	rostosu </s>
-0.16878957	pirzolası </s>
-0.73058945	fırında </s>
-0.61509454	badem </s>
-0.48785266	soslu </s>
-0.37274194	nugget </s>
-0.37274194	göğsü </s>
-0.5407133	kişnişli </s>
-0.37274194	şiş </s>
-0.29874733	baget </s>
-0.3558707	rosto </s>
-0.37274194	kebap </s>
-0.68539363	somon </s>
-0.5407133	balığı </s>
-0.16878957	keki </s>
-0.5407133	kızarmış </s>
-0.16878957	ördek </s>
-0.37274194	falafel </s>
-0.37274194	bıldırcın </s>
-0.37274194	biscotti </s>
-0.5407133	çilek </s>
-0.37274194	pestili </s>
-0.37274194	çipura </s>
-0.5407133	hamsi </s>
-0.16878957	buğulama </s>
-0.37274194	kaburga </s>
-0.61509454	baharatlı </s>
-0.5407133	sarımsaklı </s>
-0.37274194	karides </s>
-0.23731858	fileto </s>
-0.6062455	balık </s>
-0.3558707	kebabı </s>
-0.37274194	yahni </s>
-0.5407133	şarap </s>
-0.37274194	i̇stiridye </s>
-0.30716032	biber </s>
-0.16878957	makarna </s>
-0.16878957	kumpir </s>
-0.381986	enginar </s>
-0.3558707	kiş </s>
-0.37274194	musakka </s>
-0.381986	patates </s>
-0.37274194	cipsi </s>
-0.381986	elma </s>
-0.5407133	pişmiş </s>
-0.43623456	but </s>
-0.37274194	lazanya </s>
-0.29874733	sebzeli </s>
-0.37274194	türlü </s>
-0.29874733	cevizli </s>
-0.16878957	kurabiye </s>
-0.16878957	yufka </s>
-0.5407133	limonlu </s>
-0.16878957	bisküvi </s>
-0.528231	biftek </s>
-0.5407133	meyveli </s>
-0.16878957	kek </s>
-0.37274194	calzone </s>
-0.5407133	haşhaşlı </s>
-0.16878957	çörekler </s>
-0.54749876	ekmek </s>
-0.5407133	sandviç </s>
-0.3558707	ekmeği </s>
-0.5407133	muffin </s>
-0.37274194	omlet </s>
-0.5407133	tatlı </s>
-0.37274194	çörek </s>
-0.5407133	muzlu </s>
-0.4335557	unlu </s>
-0.37274194	muffinleri </s>
-0.5407133	rulo </s>
-0.37274194	simit </s>
-0.5407133	taze </s>
-0.5407133	meyve </s>
-0.3558707	turtası </s>
-0.61509454	elmalı </s>
-0.37274194	tart </s>
-0.37274194	puf </s>
-0.37274194	pavlova </s>
-0.37274194	çubukları </s>
-0.16878957	sütlaç </s>
-0.37274194	cheesecake </s>
-0.61509454	çikolatalı </s>
-0.37274194	sufle </s>
-0.5407133	krem </s>
-0.16878957	brule </s>
-0.5407133	ballı </s>
-0.5407133	muz </s>
-0.37274194	galete </s>
-0.5407133	armut </s>
-0.16878957	kurusu </s>
-0.5407133	çilekli </s>
-0.16878957	turta </s>
-0.16878957	yoğurt </s>
-0.5407133	hamur </s>
-0.6576812	kabartma </s>
-0.61509454	bonfile </s>
-0.37274194	ısı </s>
-0.37274194	açsın </s>
-0.37274194	önerir </s>
-0.37274194	fasülye </s>
-0.37274194	semizot </s>
-0.6576812	ıspanak </s>
-0.37274194	tarçınlı </s>
-0.37274194	pasta </s>
-0.37274194	karamel </s>
-0.37274194	tuzda </s>
-0.37274194	güveçte </s>
-0.37274194	sarma </s>
-0.37274194	baton </s>
-0.37274194	közlenmiş </s>
-0.37274194	bagetleri </s>
-0.37274194	şerbetli </s>
-0.37274194	puflar </s>
-0.16878957	tavşan </s>
-0.37274194	parçaları </s>
-0.37274194	iri </s>
-0.37274194	çikolata </s>
-0.16878957	tuzlu </s>
-0.37274194	taneli </s>
-0.37274194	ekler </s>
-0.68539363	dana </s>
-0.23618689	eti </s>
-0.37274194	köftesi </s>
-0.37274194	sülün </s>
-0.37274194	börek </s>
-0.37274194	beze </s>
-0.37274194	paketleri </s>
-0.44085145	maydanoz </s>
-0.37274194	kruvasan </s>
-0.37274194	örgü </s>
-0.37274194	puding </s>
-0.37274194	dondurulmuş </s>
-0.37274194	tandır </s>
-0.37274194	poğaçalar </s>
-0.37274194	topları </s>
-0.37274194	yahnisi </s>
-0.6576812	sığır </s>
-0.37274194	böreği </s>
-0.37274194	yumuşak </s>
-0.37274194	avcı </s>
-0.37274194	graten </s>
-0.37274194	sosisli </s>
-0.37274194	kaz </s>
-0.37274194	i̇rmik </s>
-0.37274194	bonfilesi </s>
-0.37274194	usulü </s>
-0.37274194	alabalık </s>
-0.37274194	acılı </s>
-0.37274194	levrek </s>
-0.37274194	sebzeler </s>
-0.16878957	bifteği </s>
-0.44085145	sebze </s>
-0.23618689	etli </s>
-0.37274194	rulolar </s>
-0.37274194	rozbif </s>
-0.37274194	mereng </s>
-0.37274194	kreme </s>
-0.17756279	peynirli </s>
-0.37274194	güveç </s>
-0.37274194	ayva </s>
-0.37274194	ekle </s>
-0.30556628	anlamadım </s>
-0.16878957	mı </s>
-0.16878957	gidebilirim </s>
-0.37274194	sürer </s>
-0.37274194	mu </s>
-0.37274194	musun </s>
-0.37274194	miyim </s>
-0.37274194	çağır </s>
-0.37274194	karnabahar </s>
-0.7622487	yumurta </s>
-0.37274194	sarısı </s>
-0.37274194	stok </s>
-0.17756279	soğan </s>
-0.37274194	tereyağı </s>
-0.37274194	kimyon </s>
-0.37274194	şekeri </s>
-0.37274194	pekmez </s>
-0.6576812	haşhaş </s>
-0.16878957	tohumu </s>
-0.37274194	yaprakları </s>
-0.37274194	fesleğen </s>
-0.5407133	cevizi </s>
-0.37274194	salam </s>
-0.37274194	sucuk </s>
-0.37274194	karabiber </s>
-0.37274194	dereotu </s>
-0.16878957	un </s>
-0.37274194	yağı </s>
-0.37274194	adaçayı </s>
-0.37274194	dalları </s>
-0.37274194	hamuru </s>
-0.16878957	kıyma </s>
-0.37274194	bezelye </s>
-0.6576812	defne </s>
-0.3558707	peynir </s>
-0.37274194	bacon </s>
-0.37274194	pancetta </s>
-0.6576812	kişniş </s>
-0.89297986	limon </s>
-0.6576812	kabuğu </s>
-0.16878957	salçası </s>
-0.16878957	tozu </s>
-0.37274194	filetosu </s>
-0.37274194	irmik </s>
-0.37274194	dışı </s>
-0.37274194	nişasta </s>
-0.37274194	mayonez </s>
-0.3558707	yaprağı </s>
-0.5407133	margarin </s>
-0.37274194	sıcaklığında </s>
-0.37274194	ceviz </s>
-0.16878957	peyniri </s>
-0.16878957	maya </s>
-0.37274194	unu </s>
-0.37274194	akı </s>
-0.37274194	kivi </s>
-0.37274194	kakao </s>
-0.37274194	havuç </s>
-0.37274194	yenibahar </s>
-0.37274194	nane </s>
-0.37274194	zeytinyağı </s>
-0.37274194	özütü </s>
-0.3558707	şeker </s>
-0.37274194	süt </s>
-0.37274194	beyazı </s>
-0.37274194	tuzu </s>
-0.37274194	kekik </s>
-0.37274194	otu </s>
-0.37274194	muskat </s>
-0.37274194	kıyması </s>
-0.37274194	tuz </s>
-0.23618689	suyu </s>
-0.37274194	ot </s>
-0.37274194	zeytin </s>
-0.37274194	bal </s>
-0.37274194	üzüm </s>
-0.16878957	krema </s>
-0.37274194	brokoli </s>
-0.37274194	baharat </s>
-0.29874733	yağsız </s>
-0.37274194	su </s>
-0.37274194	kırıntıları </s>
-0.37274194	parmesan </s>
-0.37274194	yağ </s>
-0.16878957	sos </s>
-0.37274194	sosis </s>
-0.37274194	sosu </s>
-0.37274194	soğanı </s>
-0.37274194	konservesi </s>
-0.37274194	konyak </s>
-0.37274194	bonfileleri </s>
-0.37274194	mısır </s>
-0.37274194	turşusu </s>
-0.37274194	pastırması </s>
-0.37274194	mersini </s>
-0.44085145	yağlı </s>
-0.37274194	karnabaharsız </s>
-0.37274194	sarısız </s>
-0.37274194	stoksuz </s>
-0.14246066	soğansız </s>
-0.37274194	çikolatasız </s>
-0.37274194	tereyağısız </s>
-0.37274194	kimyonsuz </s>
-0.23618689	şekersiz </s>
-0.37274194	hindisiz </s>
-0.14246066	bibersiz </s>
-0.37274194	pekmezsiz </s>
-0.16878957	sebzesiz </s>
-0.16878957	tohumsuz </s>
-0.3558707	etsiz </s>
-0.23618689	yapraksız </s>
-0.37274194	tereyağsız </s>
-0.3558707	butsuz </s>
-0.37274194	yufkasız </s>
-0.37274194	fesleğensiz </s>
-0.16878957	cevizsiz </s>
-0.16878957	maydanozsuz </s>
-0.37274194	salamsız </s>
-0.37274194	sucuksuz </s>
-0.37274194	yumurtasız </s>
-0.37274194	kabaksız </s>
-0.37274194	karabibersiz </s>
-0.37274194	dereotsuz </s>
-0.3558707	unsuz </s>
-0.37274194	adaçaysız </s>
-0.37274194	dalsız </s>
-0.37274194	patatessiz </s>
-0.37274194	hamursuz </s>
-0.37274194	pirinçsiz </s>
-0.3558707	kıymasız </s>
-0.37274194	bezelyesiz </s>
-0.37274194	defnesiz </s>
-0.17756279	peynirsiz </s>
-0.37274194	ayvasız </s>
-0.37274194	baconsız </s>
-0.37274194	pancettasız </s>
-0.37274194	kişnişsiz </s>
-0.37274194	kabuksuz </s>
-0.37274194	mantarsız </s>
-0.16878957	salçasız </s>
-0.16878957	tozsuz </s>
-0.17756279	filetosuz </s>
-0.3558707	bifteksiz </s>
-0.37274194	irmiksiz </s>
-0.37274194	dışsız </s>
-0.37274194	nişastasız </s>
-0.37274194	yoğurtsuz </s>
-0.37274194	mayonezsiz </s>
-0.16878957	tavuksuz </s>
-0.5407133	margarinsiz </s>
-0.5407133	kuzusuz </s>
-0.37274194	muzsuz </s>
-0.5407133	danasız </s>
-0.29874733	bonfilesiz </s>
-0.16878957	mayasız </s>
-0.37274194	limonsuz </s>
-0.37274194	aksız </s>
-0.37274194	kivisiz </s>
-0.37274194	şarapsız </s>
-0.37274194	fıstıksız </s>
-0.37274194	patlıcansız </s>
-0.37274194	haşhaşsız </s>
-0.37274194	tavşansız </s>
-0.16878957	domatessiz </s>
-0.37274194	kakaosuz </s>
-0.37274194	havuçsuz </s>
-0.37274194	yenibaharsız </s>
-0.37274194	sarımsaksız </s>
-0.37274194	nanesiz </s>
-0.37274194	zeytinyağsız </s>
-0.37274194	pirzolasız </s>
-0.37274194	özütsüz </s>
-0.37274194	sütsüz </s>
-0.37274194	beyazsız </s>
-0.16878957	tuzsuz </s>
-0.37274194	kekiksiz </s>
-0.37274194	ördeksiz </s>
-0.3558707	otsuz </s>
-0.37274194	muskatsız </s>
-0.37274194	sülünsüz </s>
-0.17756279	susuz </s>
-0.37274194	zeytinsiz </s>
-0.37274194	balsız </s>
-0.37274194	üzümsüz </s>
-0.16878957	kremasız </s>
-0.37274194	hamsisiz </s>
-0.37274194	brokolisiz </s>
-0.37274194	baharatsız </s>
-0.37274194	elmasız </s>
-0.37274194	kırıntısız </s>
-0.37274194	armutsuz </s>
-0.37274194	parmesansız </s>
-0.3558707	sossuz </s>
-0.37274194	çileksiz </s>
-0.37274194	levreksiz </s>
-0.37274194	sosissiz </s>
-0.37274194	kazsız </s>
-0.37274194	konservesiz </s>
-0.37274194	konyaksız </s>
-0.37274194	fındıksız </s>
-0.37274194	somonsuz </s>
-0.37274194	alabalıksız </s>
-0.37274194	mısırsız </s>
-0.37274194	turşusuz </s>
-0.37274194	pastırmasız </s>
-0.37274194	mersinsiz </s>
-0.37274194	domuzsuz </s>
-0.37274194	balıksız </s>
-0.37274194	karnabaharlı </s>
-0.37274194	sarılı </s>
-0.37274194	stoklu </s>
-0.37274194	kimyonlu </s>
-0.17756279	şekerli </s>
-0.37274194	hindili </s>
-0.14246066	biberli </s>
-0.37274194	pekmezli </s>
-0.16878957	tohumlu </s>
-0.23618689	yapraklı </s>
-0.37274194	tereyağlı </s>
-0.3558707	butlu </s>
-0.37274194	yufkalı </s>
-0.37274194	fesleğenli </s>
-0.37274194	maydanozlu </s>
-0.37274194	salamlı </s>
-0.37274194	sucuklu </s>
-0.37274194	yumurtalı </s>
-0.37274194	kabaklı </s>
-0.37274194	karabiberli </s>
-0.37274194	dereotulu </s>
-0.37274194	adaçayılı </s>
-0.37274194	dallı </s>
-0.37274194	hamurlu </s>
-0.37274194	pirinçli </s>
-0.3558707	kıymalı </s>
-0.37274194	bezelyeli </s>
-0.37274194	defneli </s>
-0.37274194	ayvalı </s>
-0.37274194	baconlu </s>
-0.37274194	pancettalı </s>
-0.37274194	kabuklu </s>
-0.37274194	mantarlı </s>
-0.16878957	salçalı </s>
-0.16878957	tozlu </s>
-0.17756279	filetolu </s>
-0.3558707	biftekli </s>
-0.37274194	irmikli </s>
-0.37274194	dışlı </s>
-0.37274194	nişastalı </s>
-0.37274194	yoğurtlu </s>
-0.37274194	mayonezli </s>
-0.16878957	tavuklu </s>
-0.37274194	margarinli </s>
-0.16878957	soğanlı </s>
-0.16878957	mayalı </s>
-0.37274194	aklı </s>
-0.37274194	kivili </s>
-0.37274194	şaraplı </s>
-0.37274194	fıstıklı </s>
-0.37274194	patlıcanlı </s>
-0.37274194	tavşanlı </s>
-0.37274194	domatesli </s>
-0.37274194	kakaolu </s>
-0.37274194	havuçlu </s>
-0.37274194	yenibaharlı </s>
-0.37274194	naneli </s>
-0.37274194	zeytinyağlı </s>
-0.37274194	pirzolalı </s>
-0.37274194	özütlü </s>
-0.37274194	sütlü </s>
-0.37274194	beyazlı </s>
-0.37274194	kekikli </s>
-0.37274194	ördekli </s>
-0.3558707	otlu </s>
-0.37274194	muskatlı </s>
-0.37274194	sülünlü </s>
-0.17756279	sulu </s>
-0.37274194	zeytinli </s>
-0.37274194	bonfileli </s>
-0.37274194	üzümlü </s>
-0.16878957	kremalı </s>
-0.37274194	hamsili </s>
-0.37274194	brokolili </s>
-0.37274194	kırıntılı </s>
-0.37274194	armutlu </s>
-0.37274194	parmesanlı </s>
-0.37274194	levrekli </s>
-0.37274194	kazlı </s>
-0.37274194	konserveli </s>
-0.37274194	konyaklı </s>
-0.37274194	fındıklı </s>
-0.37274194	somonlu </s>
-0.37274194	alabalıklı </s>
-0.37274194	mısırlı </s>
-0.37274194	turşulu </s>
-0.37274194	pastırmalı </s>
-0.37274194	mersinli </s>
-0.37274194	domuzlu </s>
-0.37274194	danalı </s>
-0.37274194	kuzulu </s>
-0.37274194	balıklı </s>
-0.37274194	bademsiz </s>
-0.37274194	enginarsız </s>
-0.37274194	semizotsuz </s>
-0.37274194	mercimeksiz </s>
-0.37274194	fasülyesiz </s>
-0.37274194	ıspanaksız </s>
-0.37274194	bademli </s>
-0.37274194	enginarlı </s>
-0.37274194	semizotlu </s>
-0.37274194	mercimekli </s>
-0.37274194	fasülyeli </s>
-0.37274194	ıspanaklı </s>
-0.9260556	<s> sıcaklığı	-2.9033728
-1.1318682	dereceye sıcaklığı	-2.9399912
-1.597054	fırın sıcaklığı	-0.22427723
-0.86441404	iç sıcaklığı	-0.22427723
-1.3381907	hava sıcaklığı	-0.22427723
-2.7960231	<s> bir	-1.3275212
-1.8441643	sıcaklığı bir	-0.63050854
-1.7060362	isıyı bir	-0.68477845
-1.7205665	sıcaklığını bir	-0.19099276
-1.7060362	ısısını bir	-0.16007864
-1.6905226	sıcaklığın bir	-0.22427723
-1.2529598	on bir	-2.3513741
-1.2463125	yirmi bir	-2.3597116
-1.2288463	otuz bir	-2.130148
-1.2305216	kırk bir	-2.130148
-1.2279093	elli bir	-2.130148
-1.3278259	altmış bir	-1.7850894
-1.2549196	yetmiş bir	-1.7850894
-1.2412506	seksen bir	-1.7850894
-1.2369097	doksan bir	-1.7850894
-1.4306853	yüz bir	-1.7393318
-1.801549	saati bir	-0.7181425
-1.0819222	sıfır bir	-2.0191724
-1.6560677	zamanı bir	-0.7181425
-1.5472326	saat bir	-2.4585052
-1.6965764	saatini bir	-1.7718713
-1.7342114	alarmı bir	-2.3331385
-2.0278685	pişirme bir	-1.4229003
-1.7917682	süresini bir	-2.0429888
-1.6160163	vaktini bir	-2.0422113
-1.636833	zamanını bir	-2.0422113
-1.7761568	pişirmeyi bir	-1.9960613
-1.0225682	yapabileceğim bir	-0.16007864
-0.55593866	hazırlayabileceğim bir	-0.22427723
-4.576639	<s> derece	-0.22427723
-1.2409631	bir derece	-2.1952639
-1.2472205	iki derece	-2.195505
-1.2452052	üç derece	-2.1952639
-1.2412983	dört derece	-2.1952639
-1.2334591	beş derece	-2.1962278
-1.2315284	altı derece	-2.1952639
-1.2334591	yedi derece	-2.1952639
-1.2336113	sekiz derece	-2.195505
-1.2315284	dokuz derece	-2.1952639
-2.173239	on derece	-1.2024423
-2.0533419	yirmi derece	-1.2024423
-2.1556628	otuz derece	-1.1952637
-2.0399077	kırk derece	-1.1976699
-2.1547258	elli derece	-1.1976699
-1.5514932	altmış derece	-1.1952637
-1.4792908	yetmiş derece	-1.1952637
-1.4657246	seksen derece	-1.1976699
-1.461476	doksan derece	-1.1952637
-1.5133134	yüz derece	-1.1495063
-0.679942	kaç derece	-0.6389613
-1.0558803	derece yükselt	-3.2412384
-1.0550661	derece azalt	-3.2412384
-1.8319635	isıyı azalt	-0.22427723
-2.0069962	sıcaklık azalt	-0.22427723
-1.2556063	dakika azalt	-3.718215
-1.5679039	saat azalt	-1.9222625
-1.9508073	süresini azalt	-0.22427723
-1.399912	hızını azalt	-0.22427723
-1.9822916	sıcaklığı artır	-0.22427723
-1.054542	derece artır	-3.2414553
-1.5376582	ısıyı artır	-0.22427723
-1.9949211	sıcaklık artır	-0.22427723
-1.2222384	dakika artır	-3.718215
-1.5650265	saat artır	-1.9222625
-1.925376	süresini artır	-0.22427723
-1.3933698	konuşma artır	-0.22427723
-0.8955492	hızını artır	-0.41711253
-0.86085105	seviyesini artır	-0.22427723
-2.017952	sıcaklığı düşür	-0.22427723
-1.055241	derece düşür	-3.2410214
-1.5513598	ısıyı düşür	-0.22427723
-1.401909	konuşma düşür	-0.22427723
-0.76900625	hızını düşür	-0.16007864
-0.86369914	seviyesini düşür	-0.22427723
-1.2074343	bir dereceye	-2.2032328
-1.2136691	iki dereceye	-2.2032328
-1.2116538	üç dereceye	-2.2032328
-1.2077283	dört dereceye	-2.2032328
-1.1998404	beş dereceye	-2.2038245
-1.197891	altı dereceye	-2.2032328
-1.1998404	yedi dereceye	-2.2032328
-1.199974	sekiz dereceye	-2.2032328
-1.197891	dokuz dereceye	-2.2032328
-2.0605817	on dereceye	-1.2052023
-2.0554879	yirmi dereceye	-1.2032328
-2.0408735	otuz dereceye	-1.2032328
-2.0419083	kırk dereceye	-1.2032328
-2.0399365	elli dereceye	-1.2032328
-1.4319954	altmış dereceye	-1.2052023
-1.3584871	yetmiş dereceye	-1.2052023
-1.3447303	seksen dereceye	-1.207163
-1.3403107	doksan dereceye	-1.2052023
-1.4734219	yüz dereceye	-1.1596631
-0.55911547	ona dereceye	-0.22427723
-1.132353	dereceye yükseltir	-3.2405868
-1.5633432	ısıyı yükseltir	-0.22427723
-0.22618951	yükseltir misin	-3.2408042
-0.22618951	getirir misin	-2.9404254
-0.5626727	seçer misin	-0.22427723
-0.5626727	pişirir misin	-0.22427723
-0.5626727	geçer misin	-0.22427723
-0.42331174	söyler misin	-0.6389613
-0.4016221	verir misin	-0.89423376
-0.22618951	gösterir misin	-0.16007864
-0.22618951	eder misin	-0.54205126
-0.5626727	söyleyebilir misin	-0.22427723
-1.0558803	derece azaltır	-3.2408042
-0.5616024	azaltır mısın	-3.2408042
-0.22591358	artırır mısın	-3.2405868
-0.5616024	çıkarır mısın	-3.2410214
-0.5616024	yapar mısın	-2.9395568
-0.22591358	çalıştırır mısın	-0.16007864
-0.22591358	kapatır mısın	-0.16007864
-0.116233215	açar mısın	-1.0861193
-0.5616024	başlar mısın	-0.22427723
-0.5616024	ayarlar mısın	-0.22427723
-0.5616024	tutar mısın	-0.22427723
-0.5616024	kapar mısın	-0.22427723
-0.5616024	yakar mısın	-0.22427723
-0.5616024	ısıtır mısın	-0.22427723
-1.0558355	derece artırır	-2.9395568
-1.132353	dereceye artırır	-2.9395568
-1.055766	derece düşürür	-2.9395568
-1.1322727	dereceye düşürür	-2.9399912
-1.5619272	ısıyı düşürür	-0.22427723
-0.532711	düşürür müsün	-3.2410214
-0.22687054	söndürür müsün	-0.16007864
-1.0814797	<s> isıyı	-2.7952437
-1.1324048	dereceye çıkarır	-3.2410214
-1.2744622	bir getir	-2.7985284
-1.1029165	dereceye getir	-3.5419426
-1.2807864	iki getir	-2.7985284
-1.2787712	üç getir	-2.7985284
-1.2749197	dört getir	-2.7985284
-1.2672242	beş getir	-2.7985284
-1.2653491	altı getir	-2.7985284
-1.2672242	yedi getir	-2.7985284
-1.2674321	sekiz getir	-2.7985284
-1.2653491	dokuz getir	-2.7985284
-1.4767864	on getir	-1.7529047
-1.4703698	yirmi getir	-1.7529047
-1.4533256	otuz getir	-1.7529047
-1.4549062	kırk getir	-1.7529047
-1.4523885	elli getir	-1.7529047
-1.9733222	altmış getir	-1.2410213
-1.9121506	yetmiş getir	-1.2410213
-1.9002215	seksen getir	-1.2410213
-1.8974469	doksan getir	-1.2410213
-1.6033629	yüz getir	-1.1952637
-2.5820868	sıfır getir	-1.7973238
-0.55699503	yirmiye getir	-0.22427723
-0.9921844	moduna getir	-0.41711253
-0.8496419	ızgaraya getir	-0.22427723
-1.0175089	ikiye getir	-0.22427723
-0.8496419	elliye getir	-0.22427723
-1.3270838	sıcaklığı ayarla	-2.9404254
-1.2612367	bir ayarla	-2.8922994
-1.0484729	derece ayarla	-3.416678
-1.123856	dereceye ayarla	-3.541834
-1.64528	sıcaklığını ayarla	-2.9399912
-1.6330302	ısısını ayarla	-2.9395568
-1.4332587	ısıyı ayarla	-2.9395568
-0.20725101	sıcaklık ayarla	-3.2405868
-1.2677454	iki ayarla	-2.8922994
-1.26573	üç ayarla	-2.8922994
-1.262032	dört ayarla	-2.8922994
-1.2547343	beş ayarla	-2.8927836
-1.2530131	altı ayarla	-2.8922994
-1.2547343	yedi ayarla	-2.8922994
-1.2550961	sekiz ayarla	-2.8922994
-1.2530131	dokuz ayarla	-2.8922994
-1.4657624	on ayarla	-1.8430812
-1.4598715	yirmi ayarla	-1.8430812
-1.4437903	otuz ayarla	-1.8430812
-1.4451549	kırk ayarla	-1.8430812
-1.4428532	elli ayarla	-1.8430812
-1.8935195	altmış ayarla	-1.2410213
-1.8402475	yetmiş ayarla	-1.2410213
-1.8295205	seksen ayarla	-1.2410213
-1.827835	doksan ayarla	-1.2410213
-1.5862871	yüz ayarla	-1.1952637
-1.7123195	saati ayarla	-0.22427723
-2.4454396	sıfır ayarla	-1.9222625
-1.2418085	dakika ayarla	-3.8942337
-0.6865689	ileri ayarla	-3.123546
-0.68928355	sonraya ayarla	-3.1232612
-0.8077169	geri ayarla	-3.1229763
-1.5327938	saat ayarla	-2.0983539
-0.540948	alarm ayarla	-3.7504253
-1.1447415	saatini ayarla	-3.161927
-1.6567243	alarmı ayarla	-0.22427723
-0.5587087	dakikaya ayarla	-3.8119726
-0.5330427	saate ayarla	-2.0227766
-1.7043387	süresini ayarla	-0.22427723
-0.73590136	olarak ayarla	-3.7253923
-0.83669627	çalışmayı ayarla	-0.22427723
-1.1631036	programını ayarla	-0.16007864
-0.83669627	otuza ayarla	-0.22427723
-0.83669627	buçuğa ayarla	-0.22427723
-0.5503478	kırka ayarla	-0.22427723
-1.3239367	<s> fırın	-2.971197
-1.1322727	dereceye fırın	-2.9395568
-1.0415764	baharatlı fırın	-0.22427723
-0.96701777	fırın sıcaklığını	-2.3266175
-0.96701777	fırın ısısını	-2.1112218
-1.3185159	bir sabitle	-2.2410214
-1.1286455	dereceye sabitle	-3.2408042
-1.3248091	iki sabitle	-2.2410214
-1.3227937	üç sabitle	-2.2410214
-1.3189167	dört sabitle	-2.2410214
-1.3111545	beş sabitle	-2.2410214
-1.3092537	altı sabitle	-2.2410214
-1.3111545	yedi sabitle	-2.2410214
-1.3113366	sekiz sabitle	-2.2410214
-1.3092537	dokuz sabitle	-2.2410214
-2.5774832	on sabitle	-1.2410213
-2.5774355	yirmi sabitle	-1.2410213
-2.572286	otuz sabitle	-1.2410213
-2.571172	kırk sabitle	-1.2410213
-2.571349	elli sabitle	-1.2410213
-1.9970106	altmış sabitle	-1.2410213
-1.9332324	yetmiş sabitle	-1.2410213
-1.9209121	seksen sabitle	-1.2410213
-1.9177845	doksan sabitle	-1.2410213
-1.6079704	yüz sabitle	-1.1952637
-0.5587613	doksana sabitle	-0.22427723
-1.2780107	bir yap	-2.512863
-1.0526254	derece yap	-3.2410214
-1.2842844	iki yap	-2.512863
-1.2822691	üç yap	-2.512863
-1.2783759	dört yap	-2.512863
-1.2705716	beş yap	-2.512863
-1.2686546	altı yap	-2.512863
-1.2705716	yedi yap	-2.512863
-1.2707375	sekiz yap	-2.512863
-1.2686546	dokuz yap	-2.512863
-1.4797345	on yap	-1.4840593
-1.4731752	yirmi yap	-1.4840593
-1.45587	otuz yap	-1.4840593
-1.4575092	kırk yap	-1.4840593
-1.454933	elli yap	-1.4840593
-1.9970106	altmış yap	-1.2410213
-1.9332324	yetmiş yap	-1.2410213
-1.9209121	seksen yap	-1.2410213
-1.9177845	doksan yap	-1.2410213
-1.6079704	yüz yap	-1.1952637
-2.6265469	sıfır yap	-1.3202025
-1.132353	dereceye getirir	-2.9399912
-0.8661322	ısıtmaya getirir	-0.22427723
-1.0558803	derece yapar	-2.9395568
-1.6057507	fırın sıcaklığın	-1.9571753
-4.3232384	<s> ısıyı	-0.21065582
-1.132353	dereceye ısıyı	-2.9395568
-4.214284	<s> sıcaklık	-0.22427723
-1.362325	bir sıcaklık	-1.9399912
-1.1284449	dereceye sıcaklık	-2.9395568
-1.3686541	iki sıcaklık	-1.9399912
-1.3666389	üç sıcaklık	-1.9399912
-1.3627918	dört sıcaklık	-1.9399912
-1.3551071	beş sıcaklık	-1.9399912
-1.3532362	altı sıcaklık	-1.9399912
-1.3551071	yedi sıcaklık	-1.9399912
-1.3553191	sekiz sıcaklık	-1.9399912
-1.3532362	dokuz sıcaklık	-1.9399912
-2.4796658	on sıcaklık	-0.9399913
-2.478481	yirmi sıcaklık	-0.9399913
-2.4711711	otuz sıcaklık	-0.9399913
-2.4705508	kırk sıcaklık	-0.9399913
-2.4702342	elli sıcaklık	-0.9399913
-1.8879275	altmış sıcaklık	-0.9399913
-1.8217534	yetmiş sıcaklık	-0.9399913
-1.809076	seksen sıcaklık	-0.9399913
-1.8056262	doksan sıcaklık	-0.9399913
-1.6633066	yüz sıcaklık	-0.89423376
-0.85241723	iç sıcaklık	-0.22427723
-2.2431326	<s> iki	-1.967633
-1.8441643	sıcaklığı iki	-2.540242
-1.7060362	isıyı iki	-2.5439408
-1.7205665	sıcaklığını iki	-2.035267
-1.7060362	ısısını iki	-1.9019583
-1.6905226	sıcaklığın iki	-1.9358599
-1.4778987	ısıyı iki	-0.22427723
-1.2529598	on iki	-2.3513117
-1.2463125	yirmi iki	-2.359774
-1.2288463	otuz iki	-2.130148
-1.2305216	kırk iki	-2.1304982
-1.2279093	elli iki	-2.130148
-1.3278259	altmış iki	-1.7850894
-1.2549196	yetmiş iki	-1.7859747
-1.2412506	seksen iki	-1.7850894
-1.2369097	doksan iki	-1.7850894
-1.4306853	yüz iki	-1.7393318
-1.801549	saati iki	-0.75290465
-1.0819222	sıfır iki	-2.0191724
-1.6560677	zamanı iki	-0.7181425
-1.5472326	saat iki	-2.4585052
-1.6965764	saatini iki	-1.7718713
-1.7342114	alarmı iki	-2.4320529
-2.0278685	pişirme iki	-1.4229003
-1.7917682	süresini iki	-2.0422113
-1.6160163	vaktini iki	-2.0422113
-1.636833	zamanını iki	-2.0422113
-1.7761568	pişirmeyi iki	-1.9960613
-1.7342114	fırını iki	-0.22427723
-2.2419815	<s> üç	-1.9232693
-1.8568007	sıcaklığı üç	-2.5395973
-1.7160894	isıyı üç	-2.5439408
-1.7309657	sıcaklığını üç	-2.035267
-1.7160894	ısısını üç	-1.9019583
-1.7002189	sıcaklığın üç	-1.9358599
-1.2536623	on üç	-2.3597116
-1.2469807	yirmi üç	-2.359774
-1.229452	otuz üç	-2.130148
-1.2311412	kırk üç	-2.130148
-1.2285149	elli üç	-2.130323
-1.3299168	altmış üç	-1.7850894
-1.1796582	yetmiş üç	-1.754875
-1.2430266	seksen üç	-1.7850894
-1.2386498	doksan üç	-1.7850894
-1.4319187	yüz üç	-1.7393318
-1.814111	saati üç	-0.7181425
-1.0824568	sıfır üç	-2.0191724
-1.6650169	zamanı üç	-0.7181425
-1.5490717	saat üç	-2.4585052
-1.7059488	saatini üç	-1.7718713
-1.7449467	alarmı üç	-2.4327517
-2.04366	pişirme üç	-1.4229003
-1.8040466	süresini üç	-2.0422113
-1.6241695	vaktini üç	-2.0422113
-1.6453906	zamanını üç	-2.0422113
-1.7875724	pişirmeyi üç	-1.9960613
-2.243332	<s> dört	-1.967633
-1.8568007	sıcaklığı dört	-2.5395973
-1.7160894	isıyı dört	-2.5439408
-1.7309657	sıcaklığını dört	-2.035267
-1.7160894	ısısını dört	-1.9019583
-1.7002189	sıcaklığın dört	-1.9358599
-1.2536623	on dört	-2.3597116
-1.2469807	yirmi dört	-2.3597116
-1.229452	otuz dört	-2.130148
-1.2311412	kırk dört	-2.130148
-1.2285149	elli dört	-2.130148
-1.3299168	altmış dört	-1.7850894
-1.2567358	yetmiş dört	-1.7850894
-1.2430266	seksen dört	-1.7850894
-1.2386498	doksan dört	-1.7850894
-1.4319187	yüz dört	-1.7393318
-1.814111	saati dört	-0.75290465
-1.0824568	sıfır dört	-2.0191724
-1.6650169	zamanı dört	-0.7181425
-1.5490717	saat dört	-2.4585052
-1.7059488	saatini dört	-1.7718713
-1.7449467	alarmı dört	-2.4320529
-2.04366	pişirme dört	-1.4229003
-1.8040466	süresini dört	-2.0422113
-1.6241695	vaktini dört	-2.0422113
-1.6453906	zamanını dört	-2.0422113
-1.7875724	pişirmeyi dört	-1.9960613
-2.243332	<s> beş	-1.967633
-1.8568007	sıcaklığı beş	-2.5395973
-1.7160894	isıyı beş	-2.5439408
-1.7309657	sıcaklığını beş	-2.035267
-1.7160894	ısısını beş	-1.9019583
-1.7002189	sıcaklığın beş	-1.9358599
-1.2536623	on beş	-2.3602743
-1.2469807	yirmi beş	-2.1360726
-1.229452	otuz beş	-2.1304982
-1.2311412	kırk beş	-2.130323
-1.2285149	elli beş	-2.130323
-1.3299168	altmış beş	-1.7850894
-1.2567358	yetmiş beş	-1.7850894
-1.2430266	seksen beş	-1.7850894
-1.2386498	doksan beş	-1.7850894
-1.398019	yüz beş	-1.741297
-1.814111	saati beş	-0.7181425
-1.0824568	sıfır beş	-2.0194309
-1.6650169	zamanı beş	-0.7181425
-1.5490717	saat beş	-2.4588342
-1.7059488	saatini beş	-1.7718713
-1.7449467	alarmı beş	-2.4334493
-2.04366	pişirme beş	-1.4229003
-1.8040466	süresini beş	-2.0422113
-1.6241695	vaktini beş	-2.0422113
-1.6453906	zamanını beş	-2.0422113
-1.7875724	pişirmeyi beş	-1.9960613
-2.243332	<s> altı	-1.967633
-1.8568007	sıcaklığı altı	-2.5395973
-1.7160894	isıyı altı	-2.5439408
-1.7309657	sıcaklığını altı	-2.035267
-1.7160894	ısısını altı	-1.9019583
-1.7002189	sıcaklığın altı	-1.9358599
-1.2536623	on altı	-2.359774
-1.2469807	yirmi altı	-2.1465602
-1.229452	otuz altı	-2.130148
-1.2311412	kırk altı	-2.130148
-1.2285149	elli altı	-2.130148
-1.3299168	altmış altı	-1.7850894
-1.2567358	yetmiş altı	-1.7850894
-1.2430266	seksen altı	-1.7850894
-1.2386498	doksan altı	-1.7850894
-1.4319187	yüz altı	-1.7393318
-1.814111	saati altı	-0.7181425
-1.0824568	sıfır altı	-2.0191724
-1.6650169	zamanı altı	-0.7181425
-1.5490717	saat altı	-2.4585052
-1.7059488	saatini altı	-1.7718713
-1.7449467	alarmı altı	-2.4320529
-2.04366	pişirme altı	-1.4229003
-1.8040466	süresini altı	-2.0422113
-1.6241695	vaktini altı	-2.0422113
-1.6453906	zamanını altı	-2.0422113
-1.7875724	pişirmeyi altı	-1.9960613
-2.243332	<s> yedi	-1.967633
-1.8568007	sıcaklığı yedi	-2.5395973
-1.7160894	isıyı yedi	-2.5439408
-1.7309657	sıcaklığını yedi	-2.035267
-1.7160894	ısısını yedi	-1.9019583
-1.7002189	sıcaklığın yedi	-1.9358599
-1.2536623	on yedi	-2.3597116
-1.2469807	yirmi yedi	-2.1465602
-1.229452	otuz yedi	-2.130148
-1.2311412	kırk yedi	-2.130148
-1.2285149	elli yedi	-2.130148
-1.3299168	altmış yedi	-1.7850894
-1.2567358	yetmiş yedi	-1.7850894
-1.2430266	seksen yedi	-1.7850894
-1.2386498	doksan yedi	-1.7850894
-1.4319187	yüz yedi	-1.7393318
-1.814111	saati yedi	-0.6525938
-1.0824568	sıfır yedi	-2.0191724
-1.6650169	zamanı yedi	-0.7181425
-1.5490717	saat yedi	-2.4585052
-1.7059488	saatini yedi	-1.7718713
-1.7449467	alarmı yedi	-2.4320529
-2.04366	pişirme yedi	-1.4229003
-1.8040466	süresini yedi	-2.0422113
-1.6241695	vaktini yedi	-2.0422113
-1.6453906	zamanını yedi	-2.0422113
-1.7875724	pişirmeyi yedi	-1.9960613
-2.2428813	<s> sekiz	-1.9437277
-1.8568007	sıcaklığı sekiz	-2.5395973
-1.7160894	isıyı sekiz	-2.5439408
-1.7309657	sıcaklığını sekiz	-2.035267
-1.7160894	ısısını sekiz	-1.9019583
-1.7002189	sıcaklığın sekiz	-1.9358599
-1.2536623	on sekiz	-2.359774
-1.2469807	yirmi sekiz	-2.1465602
-1.229452	otuz sekiz	-2.130148
-1.2311412	kırk sekiz	-2.130323
-1.2285149	elli sekiz	-2.130148
-1.2534322	altmış sekiz	-1.7859747
-1.2567358	yetmiş sekiz	-1.7850894
-1.2430266	seksen sekiz	-1.7850894
-1.2386498	doksan sekiz	-1.7850894
-1.4319187	yüz sekiz	-1.7393318
-1.814111	saati sekiz	-0.7181425
-1.0824568	sıfır sekiz	-2.0191724
-1.6650169	zamanı sekiz	-0.7181425
-1.5490717	saat sekiz	-2.4585052
-1.7059488	saatini sekiz	-1.7718713
-1.7449467	alarmı sekiz	-2.4320529
-2.04366	pişirme sekiz	-1.4229003
-1.8040466	süresini sekiz	-2.0422113
-1.6241695	vaktini sekiz	-2.0422113
-1.6453906	zamanını sekiz	-2.0422113
-1.7875724	pişirmeyi sekiz	-1.9960613
-2.243332	<s> dokuz	-1.967633
-1.8568007	sıcaklığı dokuz	-2.5395973
-1.7160894	isıyı dokuz	-2.5439408
-1.7309657	sıcaklığını dokuz	-2.035267
-1.7160894	ısısını dokuz	-1.9019583
-1.7002189	sıcaklığın dokuz	-1.9358599
-1.2536623	on dokuz	-2.3598366
-1.2469807	yirmi dokuz	-2.1465602
-1.229452	otuz dokuz	-2.130148
-1.2311412	kırk dokuz	-2.130148
-1.2285149	elli dokuz	-2.130148
-1.3299168	altmış dokuz	-1.7850894
-1.2567358	yetmiş dokuz	-1.7850894
-1.2430266	seksen dokuz	-1.7850894
-1.2386498	doksan dokuz	-1.7850894
-1.4319187	yüz dokuz	-1.7393318
-1.814111	saati dokuz	-0.7181425
-1.0824568	sıfır dokuz	-2.0191724
-1.6650169	zamanı dokuz	-0.7181425
-1.5490717	saat dokuz	-2.4585052
-1.7059488	saatini dokuz	-1.7718713
-1.7449467	alarmı dokuz	-2.4320529
-2.04366	pişirme dokuz	-1.4229003
-1.8040466	süresini dokuz	-2.0422113
-1.6241695	vaktini dokuz	-2.0422113
-1.6453906	zamanını dokuz	-2.0422113
-1.7875724	pişirmeyi dokuz	-1.9960613
-1.4967211	<s> on	-2.2984674
-1.8258734	sıcaklığı on	-1.1393999
-2.1723146	bir on	-1.5098178
-1.6913799	isıyı on	-1.0246799
-1.70542	sıcaklığını on	-0.49112332
-1.6913799	ısısını on	-0.16007864
-1.6763723	sıcaklığın on	-0.16608794
-2.1808648	iki on	-1.5098178
-2.1788497	üç on	-1.5098178
-2.1768558	dört on	-1.5098178
-2.1740153	beş on	-1.5098178
-2.1740332	altı on	-1.5098178
-2.1740153	yedi on	-1.5098178
-2.1761162	sekiz on	-1.5098178
-2.1740332	dokuz on	-1.5105927
-1.9479934	on on	-1.0626599
-1.9434805	yirmi on	-1.0626599
-1.9299394	otuz on	-0.45721665
-1.9307324	kırk on	-0.45721665
-1.9290024	elli on	-0.45721665
-1.4288415	yüz on	-2.3804083
-1.7833618	saati on	-2.158564
-2.5341234	sıfır on	-1.0626599
-1.6429806	zamanı on	-1.525452
-1.4613273	saat on	-2.8052194
-1.6828861	saatini on	-2.237342
-1.7185901	alarmı on	-2.5813
-2.0052087	pişirme on	-1.7789466
-1.773978	süresini on	-2.5662801
-1.6040663	vaktini on	-2.5592046
-1.6243047	zamanını on	-2.5592046
-1.7595769	pişirmeyi on	-2.5725434
-1.6423879	<s> yirmi	-2.1458457
-1.8199437	sıcaklığı yirmi	-1.1266255
-2.1667635	bir yirmi	-1.4958777
-1.6866024	isıyı yirmi	-1.0246799
-1.7004864	sıcaklığını yirmi	-0.49112332
-1.6866024	ısısını yirmi	-0.16007864
-1.6717561	sıcaklığın yirmi	-0.16608794
-1.4663012	ısıyı yirmi	-0.16007864
-2.175364	iki yirmi	-1.5098178
-2.173349	üç yirmi	-1.5098178
-2.171397	dört yirmi	-1.5098178
-2.1686673	beş yirmi	-1.5098178
-2.1687288	altı yirmi	-1.5098178
-2.1686673	yedi yirmi	-1.5098178
-2.170812	sekiz yirmi	-1.5098178
-2.1687288	dokuz yirmi	-1.5098178
-1.9462577	on yirmi	-1.0626599
-1.9418212	yirmi yirmi	-1.0626599
-1.9284216	otuz yirmi	-0.45721665
-1.9291826	kırk yirmi	-0.45721665
-1.9274845	elli yirmi	-0.45721665
-1.4282286	yüz yirmi	-2.3803098
-1.7774649	saati yirmi	-2.1449587
-2.5266204	sıfır yirmi	-1.0626599
-1.6387043	zamanı yirmi	-1.5089748
-1.5000964	saat yirmi	-2.8367012
-1.6784171	saatini yirmi	-2.1004527
-1.7135054	alarmı yirmi	-2.403044
-1.9979107	pişirme yirmi	-1.6432908
-1.7682062	süresini yirmi	-2.2651236
-1.6001549	vaktini yirmi	-2.2652767
-1.6202077	zamanını yirmi	-2.2651236
-1.7541881	pişirmeyi yirmi	-2.2784622
-3.016261	<s> otuz	-0.8534627
-1.8258734	sıcaklığı otuz	-1.1244595
-2.1723146	bir otuz	-1.5098178
-1.6913799	isıyı otuz	-1.0246799
-1.70542	sıcaklığını otuz	-0.49112332
-1.6913799	ısısını otuz	-0.16007864
-1.6763723	sıcaklığın otuz	-0.16608794
-2.1808648	iki otuz	-1.5098178
-2.1788497	üç otuz	-1.5098178
-2.1768558	dört otuz	-1.5098178
-2.1740153	beş otuz	-1.5098178
-2.1740332	altı otuz	-1.5098178
-2.1740153	yedi otuz	-1.5098178
-2.1761162	sekiz otuz	-1.5098178
-2.1740332	dokuz otuz	-1.5098178
-1.9479934	on otuz	-1.0626599
-1.9434805	yirmi otuz	-1.0626599
-1.9299394	otuz otuz	-0.45721665
-1.9307324	kırk otuz	-0.45721665
-1.9290024	elli otuz	-0.45721665
-1.4288415	yüz otuz	-2.3803098
-1.7833618	saati otuz	-0.70341927
-2.5341234	sıfır otuz	-1.0626599
-1.6429806	zamanı otuz	-0.6525938
-1.5009204	saat otuz	-2.7815835
-1.6828861	saatini otuz	-0.25236633
-1.7185901	alarmı otuz	-0.8529129
-2.0052087	pişirme otuz	-0.22427723
-1.773978	süresini otuz	-0.8623864
-1.6040663	vaktini otuz	-0.8496256
-1.6243047	zamanını otuz	-0.85763997
-1.7595769	pişirmeyi otuz	-0.8708958
-3.018348	<s> kırk	-0.85070527
-1.8199437	sıcaklığı kırk	-1.1244595
-2.1667635	bir kırk	-1.5098178
-1.6866024	isıyı kırk	-1.0246799
-1.7004864	sıcaklığını kırk	-0.49112332
-1.6866024	ısısını kırk	-0.16007864
-1.6717561	sıcaklığın kırk	-0.16608794
-1.4663012	ısıyı kırk	-0.22427723
-2.175364	iki kırk	-1.5098178
-2.173349	üç kırk	-1.5098178
-2.171397	dört kırk	-1.5098178
-2.1686673	beş kırk	-1.5098178
-2.1687288	altı kırk	-1.5098178
-2.1686673	yedi kırk	-1.5098178
-1.9380617	sekiz kırk	-1.4958777
-2.1687288	dokuz kırk	-1.4958777
-1.9462577	on kırk	-1.0626599
-1.9418212	yirmi kırk	-1.0626599
-1.9284216	otuz kırk	-0.45721665
-1.9291826	kırk kırk	-0.45721665
-1.9274845	elli kırk	-0.45721665
-1.4282286	yüz kırk	-2.3803098
-1.7774649	saati kırk	-0.6983985
-2.5266204	sıfır kırk	-1.0626599
-1.6387043	zamanı kırk	-0.6525938
-1.5000964	saat kırk	-2.7815835
-1.6784171	saatini kırk	-0.26985136
-1.7135054	alarmı kırk	-0.86081004
-1.9979107	pişirme kırk	-0.22427723
-1.7682062	süresini kırk	-0.8496256
-1.6001549	vaktini kırk	-0.8448267
-1.6202077	zamanını kırk	-0.8496256
-1.7541881	pişirmeyi kırk	-0.8708958
-3.021639	<s> elli	-0.8479302
-1.8258734	sıcaklığı elli	-1.1266255
-2.1723146	bir elli	-1.5098178
-1.6913799	isıyı elli	-1.0246799
-1.70542	sıcaklığını elli	-0.49112332
-1.6913799	ısısını elli	-0.16007864
-1.6763723	sıcaklığın elli	-0.16608794
-2.1808648	iki elli	-1.5098178
-2.1788497	üç elli	-1.5098178
-2.1768558	dört elli	-1.5098178
-2.1740153	beş elli	-1.5098178
-2.1740332	altı elli	-1.5098178
-2.1740153	yedi elli	-1.5098178
-2.1761162	sekiz elli	-1.5098178
-2.1740332	dokuz elli	-1.5098178
-1.9479934	on elli	-1.0626599
-1.9434805	yirmi elli	-1.0626599
-1.9299394	otuz elli	-0.45721665
-1.9307324	kırk elli	-0.45721665
-1.9290024	elli elli	-0.45721665
-1.4288415	yüz elli	-2.3804083
-1.7833618	saati elli	-0.69331896
-2.5341234	sıfır elli	-1.0626599
-1.6429806	zamanı elli	-0.6525938
-1.5009204	saat elli	-2.7815835
-1.6828861	saatini elli	-0.25236633
-1.7185901	alarmı elli	-0.86081004
-2.0052087	pişirme elli	-0.22427723
-1.773978	süresini elli	-0.8448267
-1.6040663	vaktini elli	-0.8496256
-1.6243047	zamanını elli	-0.8448267
-1.7595769	pişirmeyi elli	-0.8708958
-3.3327322	<s> altmış	-0.6716476
-1.9187101	sıcaklığı altmış	-1.1244595
-1.7644515	isıyı altmış	-1.0246799
-1.7811143	sıcaklığını altmış	-0.49112332
-1.7644515	ısısını altmış	-0.16007864
-1.7467493	sıcaklığın altmış	-0.16608794
-1.5114876	ısıyı altmış	-0.22427723
-1.4375137	yüz altmış	-2.3804083
-1.8756236	saati altmış	-0.7181425
-1.7077401	zamanı altmış	-0.7181425
-1.5574453	saat altmış	-2.4585052
-1.7508243	saatini altmış	-0.16007864
-1.7968379	alarmı altmış	-0.981384
-2.1228244	pişirme altmış	-0.22427723
-1.864048	süresini altmış	-0.6389613
-1.6628813	vaktini altmış	-0.5508495
-1.6861346	zamanını altmış	-0.5508495
-1.8430171	pişirmeyi altmış	-0.5046996
-3.3766778	<s> yetmiş	-0.72833085
-1.9738159	sıcaklığı yetmiş	-1.1266255
-1.8061832	isıyı yetmiş	-1.0246799
-1.8245627	sıcaklığını yetmiş	-0.49112332
-1.8061832	ısısını yetmiş	-0.16007864
-1.786735	sıcaklığın yetmiş	-0.16608794
-2.6884823	beş yetmiş	-0.22427723
-1.4419156	yüz yetmiş	-2.3804083
-1.9303256	saati yetmiş	-0.22427723
-1.9172194	süresini yetmiş	-0.22427723
-1.720698	zamanını yetmiş	-0.22427723
-3.375966	<s> seksen	-0.71530664
-2.0087585	sıcaklığı seksen	-1.1244595
-1.8319635	isıyı seksen	-1.0246799
-1.8514926	sıcaklığını seksen	-0.49112332
-1.8319635	ısısını seksen	-0.16007864
-1.8113536	sıcaklığın seksen	-0.16608794
-1.4095975	yüz seksen	-2.3806052
-3.3821275	<s> doksan	-0.72833085
-2.0087585	sıcaklığı doksan	-1.1244595
-1.8319635	isıyı doksan	-1.0246799
-1.8514926	sıcaklığını doksan	-0.49112332
-1.8319635	ısısını doksan	-0.16007864
-1.8113536	sıcaklığın doksan	-0.16608794
-1.4444511	yüz doksan	-2.3804083
-2.380201	<s> yüz	-1.4624863
-1.9337543	sıcaklığı yüz	-1.888247
-1.7759714	isıyı yüz	-1.7739493
-1.793091	sıcaklığını yüz	-1.2368354
-1.7759714	ısısını yüz	-0.91779464
-1.7578031	sıcaklığın yüz	-0.9212243
-1.5178839	ısıyı yüz	-0.22427723
-1.5467249	iki yüz	-2.2093806
-1.7160901	üç yüz	-2.2263951
-1.7123626	dört yüz	-2.2263951
-1.7049888	beş yüz	-2.2263951
-1.7032382	altı yüz	-2.2263951
-1.7049888	yedi yüz	-2.2263951
-1.7053212	sekiz yüz	-2.2263951
-1.7032382	dokuz yüz	-2.2263951
-1.8092625	fırını yüz	-0.22427723
-1.2802459	<s> saati	-2.536708
-0.8661322	günün saati	-0.22427723
-1.7496699	<s> sıfır	-2.3952558
-2.2585475	bir sıfır	-1.7181425
-2.2662313	iki sıfır	-1.7181425
-2.264216	üç sıfır	-1.7181425
-2.261497	dört sıfır	-1.7181425
-2.1546762	beş sıfır	-1.5211343
-2.1536639	altı sıfır	-1.5420513
-2.1546762	yedi sıfır	-1.5420513
-2.155747	sekiz sıfır	-1.5420513
-2.1536639	dokuz sıfır	-1.5420513
-1.9730492	on sıfır	-1.2410213
-1.8756236	saati sıfır	-2.4172573
-1.084871	sıfır sıfır	-1.8524213
-1.7077401	zamanı sıfır	-1.7181425
-2.7499428	saat sıfır	-2.0191724
-1.7508243	saatini sıfır	-2.1952639
-1.7968379	alarmı sıfır	-2.1952639
-2.1228244	pişirme sıfır	-1.7181425
-1.6945655	bir kur	-2.6576617
-1.7012703	iki kur	-2.6576617
-1.6992551	üç kur	-2.6576617
-1.6957201	dört kur	-2.6576617
-1.688846	beş kur	-2.6576617
-1.6872892	altı kur	-2.6576617
-1.688846	yedi kur	-2.6576617
-1.6893722	sekiz kur	-2.6576617
-1.6872892	dokuz kur	-2.6576617
-1.5651702	on kur	-1.5932038
-1.5588765	yirmi kur	-1.5932038
-1.5420572	otuz kur	-1.5932038
-1.5435874	kırk kur	-1.5932038
-1.5411202	elli kur	-1.5932038
-2.5906222	sıfır kur	-1.7973238
-1.2490158	dakika kur	-3.4171126
-1.309992	sonraya kur	-0.22427723
-1.5509186	saat kur	-1.6212325
-0.4589457	alarm kur	-3.7509627
-1.7155281	saatini kur	-3.1614056
-0.56032896	dakikaya kur	-3.7183597
-0.58088464	saate kur	-1.9222625
-0.6172884	olarak kur	-3.7250361
-0.5573477	sıfıra kur	-0.22427723
-0.85033405	otuza kur	-0.22427723
-1.696429	bir al	-2.1805406
-1.703109	iki al	-2.1805406
-1.7010937	üç al	-2.1805406
-1.697538	dört al	-2.1805406
-1.6906103	beş al	-2.1805406
-1.6890327	altı al	-2.1805406
-1.6906103	yedi al	-2.1805406
-1.6911156	sekiz al	-2.1805406
-1.6890327	dokuz al	-2.1805406
-1.565891	on al	-1.1160825
-1.5595628	yirmi al	-1.1160825
-1.54268	otuz al	-1.1160825
-1.5442245	kırk al	-1.1160825
-1.541743	elli al	-1.1160825
-2.5993285	sıfır al	-1.3202025
-0.8218015	ileri al	-3.1634872
-0.6964299	sonraya al	-3.1624477
-0.22490337	geriye al	-2.1013594
-0.9440881	geri al	-3.1634872
-0.22490337	önceye al	-2.1013594
-0.55770063	öne al	-1.7181425
-1.0195495	ikiye al	-0.22427723
-1.5393829	tarifi al	-0.22427723
-0.5239191	programa al	-0.16007864
-1.9205103	<s> zamanı	-2.0290582
-1.2086474	bir dakika	-2.548945
-1.2148647	iki dakika	-2.5491586
-1.1810656	üç dakika	-2.5492299
-1.2089095	dört dakika	-2.548945
-1.2009841	beş dakika	-2.5493011
-1.1990201	altı dakika	-2.548945
-1.2009841	yedi dakika	-2.548945
-1.2011031	sekiz dakika	-2.5490875
-1.1990201	dokuz dakika	-2.548945
-1.776302	on dakika	-1.7736965
-1.770117	yirmi dakika	-1.7732697
-1.7534966	otuz dakika	-1.7601149
-1.7549822	kırk dakika	-1.7584102
-1.7525595	elli dakika	-1.7728424
-1.1379076	altmış dakika	-1.7728424
-1.8353328	yetmiş dakika	-0.22427723
-2.7801945	yüz dakika	-0.22427723
-1.183213	kaç dakika	-0.22427723
-5.184734	<s> ileri	-0.18044165
-1.2570846	dakika ileri	-3.1335332
-1.525523	saat ileri	-1.5140226
-5.532491	<s> sonraya	-0.22427723
-1.2570846	dakika sonraya	-3.0332224
-1.5717703	saat sonraya	-1.4962938
-1.2572314	dakika geriye	-2.0227766
-1.5721555	saat geriye	-1.3202025
-5.0781775	<s> geri	-0.22427723
-1.2570846	dakika geri	-3.1390147
-1.4837297	saat geri	-1.5492299
-1.2572314	dakika önceye	-2.0191724
-1.5721555	saat önceye	-1.3379313
-0.8288059	geri çek	-3.1627078
-1.7044103	<s> saat	-2.6483414
-1.366673	bir saat	-2.479716
-1.3729404	iki saat	-2.479673
-1.3709251	üç saat	-2.4796298
-1.3670266	dört saat	-2.479673
-1.4095317	beş saat	-2.29443
-1.4076291	altı saat	-2.29443
-1.4095317	yedi saat	-2.29443
-1.4097121	sekiz saat	-2.29443
-1.4076291	dokuz saat	-2.29443
-1.8338622	on saat	-2.021427
-1.8277432	yirmi saat	-2.021427
-0.6198014	yarım saat	-0.18044165
-0.56017953	yarim saat	-0.22427723
-0.85591143	yarın saat	-0.22427723
-0.56017953	şuan saat	-0.22427723
-0.56017953	güncel saat	-0.22427723
-1.248678	<s> alarm	-3.3426778
-1.69271	bir alarm	-2.4815705
-1.6994394	iki alarm	-2.4815705
-1.6974242	üç alarm	-2.4815705
-1.6939096	dört alarm	-2.4815705
-1.6870888	beş alarm	-2.4815705
-1.6855527	altı alarm	-2.4815705
-1.6870888	yedi alarm	-2.4815705
-1.6876357	sekiz alarm	-2.4815705
-1.6855527	dokuz alarm	-2.4815705
-1.5644505	on alarm	-1.4171126
-1.5581914	yirmi alarm	-1.4171126
-1.5414352	otuz alarm	-1.4171126
-1.5429512	kırk alarm	-1.4171126
-1.5404981	elli alarm	-1.4171126
-2.5820868	sıfır alarm	-1.6212325
-1.2486526	dakika alarm	-1.8942338
-1.5499941	saat alarm	-1.4962938
-0.06566336	dakikalık alarm	-3.1162274
-0.5602478	dakikaya alarm	-3.1077516
-0.5807889	saate alarm	-1.1561867
-0.09223726	saatlik alarm	-1.3291574
-1.0175089	ikiye alarm	-0.22427723
-0.8496419	elliye alarm	-0.22427723
-0.55699503	yediye alarm	-0.22427723
-0.55699503	sekize alarm	-0.22427723
-0.6469097	alarm saatini	-2.7883348
-0.8661322	günün saatini	-0.22427723
-0.91930354	<s> alarmı	-2.9556546
-1.2567146	dakika ertele	-3.1166613
-1.5708005	saat ertele	-1.3202025
-1.8923516	alarmı ertele	-0.22427723
-2.22995	dakikaya ertele	-0.22427723
-1.2573261	dakika öne	-1.7181425
-1.6191804	bir dakikalık	-2.4171126
-1.6255542	iki dakikalık	-2.4171126
-1.6235389	üç dakikalık	-2.4171126
-1.6197287	dört dakikalık	-2.4171126
-1.61214	beş dakikalık	-2.418558
-1.6103064	altı dakikalık	-2.4171126
-1.61214	yedi dakikalık	-2.4171126
-1.6123893	sekiz dakikalık	-2.4171126
-1.6103064	dokuz dakikalık	-2.4171126
-2.5231829	on dakikalık	-1.6389613
-2.5203204	yirmi dakikalık	-1.6389613
-2.5098522	otuz dakikalık	-1.6389613
-2.5099502	kırk dakikalık	-1.6389613
-2.5089152	elli dakikalık	-1.6389613
-1.9152857	altmış dakikalık	-1.6389613
-1.3684244	bir dakikaya	-2.6771839
-1.3746668	iki dakikaya	-2.6771839
-1.3726516	üç dakikaya	-2.6771839
-1.3687322	dört dakikaya	-2.6771839
-1.3608605	beş dakikaya	-2.6782432
-1.3589172	altı dakikaya	-2.6771839
-1.3608605	yedi dakikaya	-2.6771839
-1.3610002	sekiz dakikaya	-2.6771839
-1.3589172	dokuz dakikaya	-2.6771839
-1.9786117	on dakikaya	-1.7127906
-2.066381	yirmi dakikaya	-1.9006206
-1.9565881	otuz dakikaya	-1.9037791
-2.0520527	kırk dakikaya	-1.8990327
-2.0498638	elli dakikaya	-1.8990327
-1.438675	altmış dakikaya	-1.9006206
-1.5456283	bir saate	-0.95423174
-1.551897	iki saate	-0.9399913
-1.5498818	üç saate	-0.9399913
-1.5459844	dört saate	-0.9399913
-1.6165898	beş saate	-0.73520994
-1.6147006	altı saate	-0.73520994
-1.6165898	yedi saate	-0.73520994
-1.6167835	sekiz saate	-0.73520994
-1.6147006	dokuz saate	-0.73520994
-2.0789964	on saate	-0.5386504
-2.0730503	yirmi saate	-0.5386504
-1.2499397	yarım saate	-0.22427723
-2.3090706	bir saatlik	-0.7850893
-2.3161616	iki saatlik	-0.7181425
-2.3141463	üç saatlik	-0.7181425
-2.3109329	dört saatlik	-0.7181425
-2.1922846	beş saatlik	-0.54205126
-2.1908586	altı saatlik	-0.54205126
-2.1922846	yedi saatlik	-0.54205126
-2.1929414	sekiz saatlik	-0.54205126
-2.1908586	dokuz saatlik	-0.54205126
-3.0180075	on saatlik	-0.16007864
-3.0201542	yirmi saatlik	-0.16007864
-0.5798484	<s> pişirme	-3.1721494
-1.696429	bir pişirme	-2.1805406
-1.703109	iki pişirme	-2.1805406
-1.7010937	üç pişirme	-2.1805406
-1.697538	dört pişirme	-2.1805406
-1.6906103	beş pişirme	-2.1805406
-1.6890327	altı pişirme	-2.1805406
-1.6906103	yedi pişirme	-2.1805406
-1.6911156	sekiz pişirme	-2.1805406
-1.6890327	dokuz pişirme	-2.1805406
-1.565891	on pişirme	-1.1160825
-1.5595628	yirmi pişirme	-1.1160825
-1.54268	otuz pişirme	-1.1160825
-1.5442245	kırk pişirme	-1.1160825
-1.541743	elli pişirme	-1.1160825
-2.5993285	sıfır pişirme	-1.3202025
-1.4538337	turbo pişirme	-0.31007883
-1.0262189	kalan pişirme	-0.22427723
-0.55770063	bu pişirme	-0.22427723
-0.8510273	mevcut pişirme	-0.37475818
-1.0195495	seçili pişirme	-0.16007864
-0.55770063	simdiki pişirme	-0.22427723
-0.8510273	şuanki pişirme	-0.22427723
-1.4282057	nasıl pişirme	-0.22427723
-1.7077811	bir bitsin	-2.1805406
-1.7143074	iki bitsin	-2.1805406
-1.7122921	üç bitsin	-2.1805406
-1.7086087	dört bitsin	-2.1805406
-1.7013494	beş bitsin	-2.1805406
-1.6996431	altı bitsin	-2.1830294
-1.7013494	yedi bitsin	-2.1805406
-1.701726	sekiz bitsin	-2.1805406
-1.6996431	dokuz bitsin	-2.1805406
-1.5702415	on bitsin	-1.1160825
-1.5637031	yirmi bitsin	-1.1160825
-1.5464362	otuz bitsin	-1.1160825
-1.5480667	kırk bitsin	-1.1160825
-1.5454992	elli bitsin	-1.1160825
-2.6555858	sıfır bitsin	-1.3202025
-0.6332579	pişirme bitsin	-3.1614056
-0.43296394	dakikada bitsin	-3.1160824
-0.3930109	saatte bitsin	-1.3202025
-2.382506	alarm süresini	-0.22427723
-2.3046405	pişirme süresini	-2.7725747
-1.2570846	dakika uzat	-3.7182872
-1.5717703	saat uzat	-1.9222625
-1.9872123	süresini uzat	-0.22427723
-1.2570846	dakika kısalt	-3.7182872
-1.5717703	saat kısalt	-1.9222625
-1.9872123	süresini kısalt	-0.22427723
-5.532491	<s> olarak	-0.22427723
-1.2246366	dakika olarak	-3.7182872
-1.5717703	saat olarak	-1.9222625
-2.3084123	pişirme vaktini	-2.9012225
-2.3084123	pişirme zamanını	-2.8864317
-1.0439249	<s> pişirmeyi	-2.8109214
-1.5165299	turbo pişirmeyi	-0.16007864
-0.5651801	açalım pişirmeyi	-0.22427723
-4.552896	<s> dakikada	-0.16007864
-1.5377818	bir dakikada	-2.1160827
-1.5441617	iki dakikada	-2.1160827
-1.5421463	üç dakikada	-2.1160827
-1.5383413	dört dakikada	-2.1160827
-1.5307658	beş dakikada	-2.1160827
-1.5289371	altı dakikada	-2.1160827
-1.5307658	yedi dakikada	-2.1160827
-1.53102	sekiz dakikada	-2.1160827
-1.5289371	dokuz dakikada	-2.1160827
-2.6003013	on dakikada	-1.3379313
-2.3390238	yirmi dakikada	-1.17322
-2.5927808	otuz dakikada	-1.3379313
-2.592015	kırk dakikada	-1.3379313
-2.5918438	elli dakikada	-1.3379313
-2.0118697	altmış dakikada	-1.3379313
-2.3101645	seksen dakikada	-0.22427723
-1.6538823	kaç dakikada	-0.22427723
-1.9463949	pişirmeyi bitir	-0.16007864
-0.43401903	dakikada bitir	-3.1160824
-0.3939077	saatte bitir	-1.3202025
-1.2609148	işlemini bitir	-0.22427723
-2.017588	bir saatte	-0.41711253
-2.0241814	iki saatte	-0.41711253
-2.022166	üç saatte	-0.41711253
-2.0185387	dört saatte	-0.41711253
-2.3048964	beş saatte	-0.16007864
-2.3036647	altı saatte	-0.16007864
-2.3048964	yedi saatte	-0.16007864
-2.3057475	sekiz saatte	-0.16007864
-2.3036647	dokuz saatte	-0.16007864
-2.550159	on saatte	-0.22427723
-2.5461726	yirmi saatte	-0.22427723
-4.756083	<s> sesli	-0.1721815
-4.381114	<s> konuşma	-0.18044165
-1.0420032	sesli konuşma	-0.16007864
-5.617054	<s> özelliğini	-0.22427723
-0.77068585	konuşma özelliğini	-0.16007864
-4.8320723	<s> kapat	-0.22427723
-1.8843493	pişirmeyi kapat	-0.22427723
-1.0319992	özelliğini kapat	-0.16007864
-1.0319992	konuşmayı kapat	-0.22427723
-1.8352319	fırını kapat	-0.22427723
-1.3861514	fanı kapat	-0.22427723
-1.4407549	fanları kapat	-0.22427723
-1.4407549	ışığı kapat	-0.22427723
-0.859434	aydınlatmayı kapat	-0.22427723
-0.56195885	cihazı kapat	-0.22427723
-0.56195885	kendini kapat	-0.22427723
-1.3226197	evet kapat	-0.22427723
-5.617054	<s> konuşmayı	-0.22427723
-1.0420032	sesli konuşmayı	-0.22427723
-4.498319	<s> aç	-0.22427723
-2.060047	pişirme aç	-0.22427723
-1.280342	pişirmeyi aç	-0.41711253
-1.018528	özelliğini aç	-0.16007864
-1.018528	konuşmayı aç	-0.22427723
-1.7559541	fırını aç	-0.22427723
-1.3562776	fanı aç	-0.22427723
-1.4070305	fanları aç	-0.22427723
-0.6718763	fonksiyonunu aç	-0.54205126
-0.9902469	programını aç	-0.54205126
-1.3157083	programı aç	-0.41711253
-0.7612995	modunu aç	-0.6389613
-1.1357105	ısıtma aç	-0.22427723
-1.4070305	ışığı aç	-0.22427723
-0.85033405	ışığını aç	-0.22427723
-1.5365498	tarifi aç	-0.22427723
-0.85033405	aydınlatmayı aç	-0.22427723
-0.85033405	izgarayı aç	-0.22427723
-0.85033405	sonrakini aç	-0.22427723
-0.85033405	öncekini aç	-0.22427723
-1.4809338	tarifleri aç	-0.22427723
-0.5573477	ızgarayı aç	-0.22427723
-0.5573477	davlumbazı aç	-0.22427723
-0.5573477	klimayı aç	-0.22427723
-0.5573477	televizyonu aç	-0.22427723
-5.6819754	<s> özellik	-0.22427723
-5.245591	<s> ses	-0.18044165
-5.372233	<s> hızını	-0.22427723
-1.4062424	konuşma hızını	-0.22427723
-0.86513025	ses hızını	-0.22427723
-1.46289	fan hızını	-0.22427723
-1.4098557	konuşma seviyesini	-0.22427723
-5.6819754	<s> seviyesi	-0.22427723
-5.6819754	<s> seviye	-0.22427723
-5.6819754	<s> hız	-0.22427723
-5.6819754	<s> hızı	-0.22427723
-4.90439	<s> en	-0.54205126
-2.0467608	sıcaklığı en	-0.22427723
-2.023637	sıcaklık en	-0.22427723
-0.5277994	en fazla	-0.16007864
-0.22687054	daha fazla	-0.7850893
-0.8661322	fazla kaça	-0.22427723
-0.8661322	çok kaça	-0.22427723
-0.40291125	kaça ayarlayabilirim	-0.16007864
-1.342373	süresi ayarlayabilirim	-0.22427723
-1.0423924	kaça ayarlanabilir	-0.22427723
-1.166916	en çok	-0.22427723
-0.8661322	trafik çok	-0.22427723
-3.0781024	yüz yirmiye	-0.22427723
-3.0781024	yüz ona	-0.22427723
-3.0781024	yüz doksana	-0.22427723
-3.9480448	<s> fırını	-0.22427723
-0.5653226	mikrodalga fırını	-0.22427723
-4.1474175	<s> fan	-0.3631983
-1.9031404	fırını fan	-0.22427723
-4.384631	<s> fanı	-0.19456753
-1.4090999	fanı sağa	-0.22427723
-0.8661322	yönünü sağa	-0.22427723
-0.5277994	sağa döndür	-0.16007864
-0.5277994	sola döndür	-0.16007864
-1.4090999	fanı sola	-0.22427723
-0.8661322	yönünü sola	-0.22427723
-1.166916	sağa çevir	-0.22427723
-1.166916	sola çevir	-0.22427723
-1.4676064	fan yönünü	-0.16007864
-1.9834099	saati değiştir	-0.22427723
-1.9686285	süresini değiştir	-0.22427723
-1.1642419	sağa değiştir	-0.22427723
-1.1642419	sola değiştir	-0.22427723
-0.56446224	turboya değiştir	-0.22427723
-1.4097427	fanı yavaşlat	-0.22427723
-1.4097427	fanı hızlandır	-0.22427723
-4.4520106	<s> fanları	-0.22427723
-4.729334	<s> çalıştır	-0.22427723
-2.1527803	pişirme çalıştır	-0.22427723
-1.8156108	fırını çalıştır	-0.22427723
-1.4327366	fanları çalıştır	-0.22427723
-0.81404537	programını çalıştır	-0.7181425
-1.3330985	programı çalıştır	-0.41711253
-0.9478815	modunu çalıştır	-0.54205126
-0.99971646	modu çalıştır	-0.16007864
-1.3868147	program çalıştır	-0.22427723
-1.4796038	turbo çalıştır	-0.22427723
-1.0288532	lambaları çalıştır	-0.22427723
-0.85731703	izgarayı çalıştır	-0.22427723
-0.85731703	sonrakini çalıştır	-0.22427723
-0.85731703	öncekini çalıştır	-0.22427723
-0.85731703	mod çalıştır	-0.22427723
-1.9031404	fırını çalıştırır	-0.22427723
-1.4668722	fanları çalıştırır	-0.22427723
-1.9031404	fırını kapatır	-0.22427723
-1.4668722	fanları kapatır	-0.22427723
-1.8923516	fırını söndür	-0.22427723
-1.46289	fanları söndür	-0.22427723
-1.46289	ışığı söndür	-0.22427723
-1.0405018	lambaları söndür	-0.22427723
-1.9381369	pişirmeyi durdur	-0.22427723
-1.403131	fanı durdur	-0.22427723
-1.4600606	fanları durdur	-0.22427723
-1.8487046	programı durdur	-0.22427723
-1.2591355	işlemini durdur	-0.22427723
-1.9031404	fırını söndürür	-0.22427723
-1.4668722	fanları söndürür	-0.22427723
-4.272176	<s> fanlı	-0.30342698
-0.8661322	ekonomik fanlı	-0.22427723
-1.4668722	fanlı çalışma	-0.22427723
-1.0420032	üst çalışma	-0.22427723
-2.2708461	pişirme fonksiyonunu	-0.22427723
-1.1632957	çalışma fonksiyonunu	-0.22427723
-0.56446224	boyut fonksiyonunu	-0.22427723
-1.597054	ızgara fonksiyonunu	-0.22427723
-1.1632957	temizleme fonksiyonunu	-0.22427723
-5.255432	<s> seç	-0.22427723
-0.87839866	fonksiyonunu seç	-0.16007864
-0.86441404	çalışmayı seç	-0.22427723
-1.2016102	programını seç	-0.41711253
-1.7824216	modunu seç	-0.22427723
-1.4676064	fanlı çalışmayı	-0.22427723
-4.8267965	<s> programını	-0.22427723
-2.23194	pişirme programını	-0.22427723
-1.4516815	fan programını	-0.22427723
-1.1590445	çalışma programını	-0.22427723
-1.5007608	turbo programını	-0.22427723
-1.5856049	pizza programını	-0.22427723
-1.5874233	ızgara programını	-0.2018066
-0.7688434	temizlik programını	-0.19099276
-4.3693695	<s> programı	-0.19099276
-1.4613267	pişirme programı	-0.49969694
-1.4516815	fan programı	-0.22427723
-1.5007608	turbo programı	-0.22427723
-1.5856049	pizza programı	-0.22427723
-1.5874233	ızgara programı	-0.22427723
-1.1590445	buharlı programı	-0.22427723
-0.7688434	temizlik programı	-0.18044165
-1.8557816	fırını açar	-0.22427723
-1.5024178	fonksiyonunu açar	-0.22427723
-1.1976023	programını açar	-0.16007864
-1.8260417	programı açar	-0.22427723
-0.95179754	modunu açar	-0.6389613
-1.1576368	ısıtma açar	-0.22427723
-1.448924	ışığı açar	-0.22427723
-1.58426	tarifi açar	-0.22427723
-1.5075772	tarifleri açar	-0.22427723
-2.1962347	pişirme modunu	-0.22427723
-1.4434608	fan modunu	-0.22427723
-1.0330529	isıtma modunu	-0.22427723
-1.491567	turbo modunu	-0.22427723
-1.1548346	ısıtma modunu	-0.18044165
-1.5753366	pizza modunu	-0.22427723
-1.0330529	tridi modunu	-0.22427723
-1.0330529	üçde modunu	-0.22427723
-1.5780016	ızgara modunu	-0.22427723
-1.0330529	tutma modunu	-0.22427723
-1.0330529	izgara modunu	-0.22427723
-4.695963	<s> modu	-0.16007864
-1.4407549	fan modu	-0.22427723
-1.4407549	fanlı modu	-0.22427723
-1.0319992	isıtma modu	-0.22427723
-1.4885452	turbo modu	-0.22427723
-1.5719671	pizza modu	-0.22427723
-1.0319992	tridi modu	-0.22427723
-1.0319992	üçde modu	-0.22427723
-0.9597347	ızgara modu	-0.16007864
-1.0319992	tutma modu	-0.22427723
-1.1534404	temizleme modu	-0.22427723
-1.0319992	izgara modu	-0.22427723
-5.0876346	<s> program	-0.22427723
-1.4544566	fanlı program	-0.22427723
-0.8629854	ekonomik program	-0.22427723
-1.160457	buharlı program	-0.22427723
-0.8629854	başka program	-0.22427723
-1.0372938	seçili program	-0.41711253
-0.5637455	aktif program	-0.22427723
-5.245591	<s> isıtma	-0.22427723
-4.0241513	<s> turbo	-0.3496683
-1.160457	çalışma moduna	-0.22427723
-1.5038692	turbo moduna	-0.22427723
-1.160457	ısıtma moduna	-0.22427723
-1.0372938	tridi moduna	-0.22427723
-1.0372938	üçde moduna	-0.22427723
-0.9634921	ızgara moduna	-0.22427723
-1.0372938	tutma moduna	-0.22427723
-0.49400452	moduna geç	-0.6389613
-0.86369914	fonksiyonuna geç	-0.22427723
-0.5316131	programına geç	-0.54205126
-0.5272186	programa geç	-0.54205126
-0.40231878	tarife geç	-0.16007864
-0.22655767	adıma geç	-0.16007864
-4.6775913	<s> alt	-0.6389613
-1.8847871	fırını alt	-0.22427723
-1.4600606	fanlı alt	-0.22427723
-1.7824216	modunu alt	-0.22427723
-0.56446224	destekli alt	-0.22427723
-0.75257385	alt ve	-0.7850893
-1.0383605	kabak ve	-0.22427723
-0.86369914	kuşkonmaz ve	-0.22427723
-1.1631309	enginar ve	-0.22427723
-1.1631309	patates ve	-0.22427723
-0.86369914	armut ve	-0.22427723
-5.532491	<s> üst	-0.22427723
-1.262733	alt üst	-0.22427723
-1.4081069	ve üst	-0.7850893
-1.042279	üst ısıtma	-0.2739838
-5.617054	<s> ısıtmaya	-0.22427723
-1.263431	alt ısıtmaya	-0.22427723
-1.4676064	fan destekli	-0.22427723
-1.5188832	fonksiyonunu seçer	-0.22427723
-4.531799	<s> yemeği	-0.18643944
-5.617054	<s> ekonomik	-0.22427723
-1.2634118	yemeği ekonomik	-0.16007864
-1.4676064	fanlı modunda	-0.22427723
-0.5654146	modunda pişirir	-0.22427723
-1.4676064	fanlı modda	-0.22427723
-1.2634118	yemeği pişir	-0.22427723
-0.5653226	modda pişir	-0.22427723
-4.185157	<s> pizza	-0.19346446
-0.5653226	burrata pizza	-0.22427723
-1.6047099	pizza fonksiyonuna	-0.22427723
-1.6049035	ızgara fonksiyonuna	-0.22427723
-0.8663162	fonksiyonuna geçer	-0.22427723
-1.6032774	pizza programına	-0.22427723
-1.6035951	ızgara programına	-0.22427723
-0.7706328	temizlik programına	-0.16007864
-1.4698238	pişirme fonksiyonu	-0.29557696
-1.599685	pizza fonksiyonu	-0.22427723
-1.6003122	ızgara fonksiyonu	-0.22427723
-1.1647221	temizleme fonksiyonu	-0.22427723
-2.887742	üç boyut	-0.41711253
-1.5182377	fonksiyonunu aktifleştir	-0.22427723
-1.8415929	programını aktifleştir	-0.22427723
-4.935238	<s> tridi	-0.19099276
-5.245591	<s> üçde	-0.22427723
-4.526871	<s> küçük	-0.47560662
-1.6436162	modu küçük	-0.16007864
-1.1667217	küçük ızgara	-0.22427723
-0.65758157	büyük ızgara	-0.38737458
-4.318518	<s> büyük	-0.59660697
-1.9000503	fırını büyük	-0.22427723
-1.4657379	fanlı büyük	-0.41711253
-5.220682	<s> sıcak	-0.41711253
-1.2634118	yemeği sıcak	-0.22427723
-1.042279	sıcak tutma	-0.22427723
-1.5189096	moduna başlar	-0.22427723
-1.9220774	pişirmeyi başlat	-0.16007864
-1.8700422	fırını başlat	-0.22427723
-1.8372253	programı başlat	-0.22427723
-1.7736331	modunu başlat	-0.22427723
-1.2555988	işlemini başlat	-0.22427723
-0.23916513	makinesini başlat	-0.6389613
-0.5637455	kurutucuyu başlat	-0.22427723
-4.187393	<s> buharlı	-0.50743467
-1.1670895	buharlı temizleme	-0.22427723
-1.7943584	modunu turboya	-0.22427723
-1.6056377	pizza pişirmek	-0.22427723
-4.598644	<s> istiyorum	-0.22427723
-1.5459126	pizza istiyorum	-0.22427723
-0.55911547	pişirmek istiyorum	-0.22427723
-0.31249413	ayarlamak istiyorum	-0.7181425
-0.55911547	etmek istiyorum	-0.16007864
-0.5271168	öğrenmek istiyorum	-0.6389613
-0.8538115	kurmak istiyorum	-0.22427723
-0.55911547	açmak istiyorum	-0.22427723
-0.3998852	çalıştırmak istiyorum	-0.16007864
-0.55911547	kapatmak istiyorum	-0.22427723
-1.550904	tarifi istiyorum	-1.0539346
-1.3064823	evet istiyorum	-0.22427723
-0.22527045	seçmek istiyorum	-0.41711253
-0.55911547	görmek istiyorum	-0.16007864
-0.8538115	yapmak istiyorum	-0.54205126
-0.55911547	almak istiyorum	-1.1704402
-0.22527045	vermek istiyorum	-0.41711253
-0.55911547	ulaşmak istiyorum	-0.41711253
-0.55911547	erişmek istiyorum	-0.22427723
-1.02366	bilgilerimi istiyorum	-0.22427723
-1.1670895	küçük ızgaraya	-0.22427723
-0.8663162	ızgaraya ayarlar	-0.22427723
-1.042279	sıcak tutar	-0.22427723
-1.042279	sıcak tut	-0.22427723
-2.8499446	sıfır sıfıra	-0.22427723
-1.3923333	sıcaklığı kaç	-0.22427723
-1.5718322	fırın kaç	-0.22427723
-1.9831728	sıcaklık kaç	-0.22427723
-1.913981	saati kaç	-0.22427723
-2.4803355	saat kaç	-0.41711253
-2.1739643	pişirme kaç	-0.22427723
-0.5616024	saatin kaç	-0.22427723
-1.030948	çalmasına kaç	-0.22427723
-1.3238927	hava kaç	-0.22427723
-1.030948	işe kaç	-0.22427723
-0.5616024	gitmem kaç	-0.22427723
-0.5616024	buzdolabı kaç	-0.22427723
-0.5616024	dondurucu kaç	-0.22427723
-2.9266727	dakika sonra	-0.22427723
-0.5653226	sonra bitecek	-0.22427723
-1.2634118	zaman bitecek	-0.54205126
-4.5820436	<s> ne	-0.22427723
-1.3814692	sıcaklığı ne	-0.22427723
-1.9642718	sıcaklık ne	-0.22427723
-2.322288	alarm ne	-0.22427723
-2.1228244	pişirme ne	-0.54205126
-2.055845	dakikada ne	-0.22427723
-1.7789999	programı ne	-0.22427723
-1.6636286	yemek ne	-0.16007864
-0.22545412	bitmesine ne	-0.16007864
-1.3104608	süresi ne	-0.16007864
-0.5598246	tamamlanmasına ne	-0.22427723
-0.5598246	sonlanmasına ne	-0.22427723
-1.0257298	çalmasına ne	-0.22427723
-0.85521036	kullanarak ne	-0.22427723
-0.22545412	kullanmadan ne	-0.16007864
-1.3826082	tarif ne	-0.22427723
-1.4294788	son ne	-0.22427723
-1.0257298	işe ne	-0.22427723
-1.0680987	ne zaman	-0.3186029
-1.2638712	zaman sonlanacak	-0.16007864
-4.404374	<s> yemek	-0.34979764
-2.203342	bir yemek	-0.41711253
-1.3843918	ne yemek	-0.54205126
-0.52590317	bulunduran yemek	-0.54205126
-0.5303237	içeren yemek	-0.45721665
-0.86085105	kullanarak yemek	-0.22427723
-1.2503469	içinde yemek	-0.22427723
-0.86085105	olan yemek	-0.16007864
-0.4016221	bulundurmayan yemek	-0.41711253
-0.6543781	olmayan yemek	-0.36030662
-5.617054	<s> hazır	-0.22427723
-1.2634118	zaman hazır	-0.22427723
-0.8661322	hazır olacak	-0.22427723
-0.8287164	nasıl olacak	-0.16007864
-1.2638712	zaman pişecek	-0.22427723
-2.8825657	iki otuza	-0.22427723
-3.236279	on otuza	-0.22427723
-5.617054	<s> buçuğa	-0.22427723
-2.8690195	yedi buçuğa	-0.22427723
-3.2230916	on ikiye	-0.22427723
-3.2035074	kırk ikiye	-0.22427723
-2.5169644	yetmiş ikiye	-0.22427723
-5.184734	<s> yarım	-0.18044165
-2.0026517	saati yarım	-0.22427723
-1.9000503	alarmı yarım	-0.18044165
-2.0091183	saati yarim	-0.22427723
-5.0876346	<s> ayarlamak	-0.22427723
-1.8514926	sıcaklığını ayarlamak	-0.22427723
-2.0069962	sıcaklık ayarlamak	-0.22427723
-1.9649848	saati ayarlamak	-0.22427723
-1.7664013	zamanı ayarlamak	-0.22427723
-1.8700422	alarmı ayarlamak	-0.22427723
-1.3330189	süresi ayarlamak	-0.22427723
-2.006569	saati kontrol	-0.22427723
-0.8661322	ışığını kontrol	-0.22427723
-0.22689416	kontrol etmek	-0.16007864
-5.532491	<s> öğrenmek	-0.22427723
-2.0026517	saati öğrenmek	-0.22427723
-1.6035951	tarifi öğrenmek	-0.41711253
-1.9929242	saati söyler	-0.22427723
-1.977821	süresini söyler	-0.22427723
-0.56482106	olduğunu söyler	-0.22427723
-0.87923396	tekrar söyler	-0.18044165
-2.8762362	bir elliye	-0.22427723
-3.236279	on elliye	-0.22427723
-3.2229185	kırk yediye	-0.22427723
-3.238509	yirmi sekize	-0.22427723
-4.935238	<s> alarmın	-0.36030662
-0.8661322	alarmın bitmesine	-0.22427723
-1.0420032	pişirmenin bitmesine	-0.22427723
-0.65393883	ne kadar	-0.4077896
-2.9222655	dakika kaldı	-0.22427723
-1.0420032	kadar kaldı	-0.6389613
-2.006569	saati kurmak	-0.22427723
-2.382506	alarm kurmak	-0.22427723
-2.8835318	bir kırka	-0.22427723
-5.245591	<s> yarın	-0.18044165
-5.532491	<s> kalan	-0.22427723
-0.5651801	alarma kalan	-0.22427723
-1.0415764	çalmasına kalan	-0.22427723
-1.8023248	pişirme süresi	-0.26243585
-4.4520106	<s> ışığı	-0.22427723
-1.9031404	fırını kapa	-0.22427723
-1.4668722	ışığı kapa	-0.22427723
-1.4676064	ışığı kapar	-0.22427723
-5.245591	<s> lambaları	-0.22427723
-1.4657379	ışığı yak	-0.22427723
-1.0415764	lambaları yak	-0.22427723
-0.5651801	lambayı yak	-0.22427723
-1.4676064	ışığı yakar	-0.22427723
-1.042279	üst lambayı	-0.22427723
-1.6057507	fırın ışığını	-0.22427723
-1.9051481	fırını açmak	-0.22427723
-5.532491	<s> çalıştırmak	-0.22427723
-1.9000503	fırını çalıştırmak	-0.22427723
-1.8398545	programını çalıştırmak	-0.22427723
-1.9051481	fırını kapatmak	-0.22427723
-5.617054	<s> pişirmeye	-0.22427723
-1.2634118	yemeği pişirmeye	-0.22427723
-0.8661322	ısıtmaya başla	-0.22427723
-0.22687054	pişirmeye başla	-0.16007864
-5.6819754	<s> açalım	-0.22427723
-1.9581959	pişirmeyi kes	-0.22427723
-0.5653226	ısıtmayı kes	-0.22427723
-5.6819754	<s> ısıtmayı	-0.22427723
-1.9051481	fırını ısıt	-0.22427723
-1.9051481	fırını ısıtır	-0.22427723
-5.255432	<s> tarifi	-0.22427723
-1.8912282	ne tarifi	-0.22427723
-0.45722514	yemek tarifi	-0.75521916
-1.0394298	kullandığım tarifi	-0.22427723
-1.2600794	hangi tarifi	-0.22427723
-5.125048	<s> hey	-0.22427723
-0.8663162	hey arçelik	-0.22427723
-5.125048	<s> aydınlatmayı	-0.22427723
-5.6819754	<s> cihazı	-0.22427723
-5.6819754	<s> kendini	-0.22427723
-4.6296206	<s> evet	-0.22427723
-1.9031404	fırını kapatma	-0.22427723
-1.2634118	hayır kapatma	-0.22427723
-4.756083	<s> hayır	-0.22427723
-5.617054	<s> onaylıyorum	-0.22427723
-1.342373	evet onaylıyorum	-0.22427723
-5.617054	<s> olur	-0.22427723
-1.342373	evet olur	-0.22427723
-5.1634793	<s> var	-0.22427723
-1.3351289	evet var	-0.22427723
-0.5641037	ihtiyacım var	-0.22427723
-0.5641037	yağmur var	-0.22427723
-0.5641037	kar var	-0.22427723
-0.5641037	yağış var	-0.22427723
-5.6819754	<s> sıfırla	-0.22427723
-1.2040293	programını seçmek	-0.16007864
-1.4094878	program seçmek	-0.22427723
-5.617054	<s> yok	-0.22427723
-1.2634118	hayır yok	-0.22427723
-5.372233	<s> istemiyorum	-0.22427723
-0.8283197	ayarlamak istemiyorum	-0.16007864
-0.86513025	kurmak istemiyorum	-0.22427723
-1.2609148	hayır istemiyorum	-0.22427723
-5.6819754	<s> sıfırlama	-0.22427723
-5.617054	<s> onaylamıyorum	-0.22427723
-1.2634118	hayır onaylamıyorum	-0.22427723
-5.245591	<s> başka	-0.18044165
-5.245591	<s> izgara	-0.22427723
-5.125048	<s> izgarayı	-0.22427723
-4.623457	<s> sonraki	-0.2018066
-2.8762362	bir sonraki	-0.22427723
-0.77073044	sonraki programa	-0.18044165
-0.77073044	önceki programa	-0.18044165
-0.8661322	başka programları	-0.22427723
-0.5653226	diğer programları	-0.22427723
-5.0876346	<s> göster	-0.22427723
-0.9634921	tarifi göster	-0.7850893
-0.5270346	programları göster	-0.16007864
-0.5637455	tariflerini göster	-0.22427723
-0.26537865	tarifleri göster	-0.8430813
-1.0372938	bilgilerimi göster	-0.22427723
-0.8629854	haberleri göster	-0.22427723
-5.125048	<s> diğer	-0.16007864
-4.526871	<s> önceki	-0.18643944
-2.8762362	bir önceki	-0.22427723
-0.5278912	programları görmek	-0.16007864
-5.125048	<s> sonrakini	-0.22427723
-5.125048	<s> öncekini	-0.22427723
-5.125048	<s> günün	-0.22427723
-2.006569	saati güncelle	-0.22427723
-1.9909922	süresini güncelle	-0.22427723
-5.6819754	<s> çıkış	-0.22427723
-5.6819754	<s> vazgeç	-0.22427723
-4.866749	<s> iptal	-0.22427723
-1.8700422	alarmı iptal	-0.22427723
-1.9508073	süresini iptal	-0.22427723
-1.9220774	pişirmeyi iptal	-0.22427723
-1.3330189	süresi iptal	-0.22427723
-1.2555988	işlemini iptal	-0.22427723
-1.160457	favori iptal	-0.22427723
-5.6819754	<s> ayarlardan	-0.22427723
-0.5653226	ayarlardan çık	-0.22427723
-0.5653226	tariflerden çık	-0.22427723
-5.1634793	<s> sonlandır	-0.22427723
-1.8773521	alarmı sonlandır	-0.22427723
-1.9596264	süresini sonlandır	-0.22427723
-1.930033	pişirmeyi sonlandır	-0.22427723
-1.8429271	programı sonlandır	-0.22427723
-1.2573636	işlemini sonlandır	-0.22427723
-5.6819754	<s> şuan	-0.22427723
-5.6819754	<s> güncel	-0.22427723
-5.6819754	<s> saatin	-0.22427723
-1.7102937	kaç olduğunu	-0.22427723
-2.2362635	dakikaya set	-0.16007864
-5.372233	<s> et	-0.22427723
-0.44338295	iptal et	-0.6389613
-0.56482106	set et	-0.16007864
-0.87923396	tekrar et	-0.16007864
-2.0253215	sıcaklık ayarı	-0.22427723
-1.342373	süresi ayarı	-0.22427723
-5.245591	<s> pişirmenin	-0.22427723
-1.042279	pişirmenin tamamlanmasına	-0.22427723
